time 0.018002 0.25491 -0.66113 0.061272 0.1076 0.024126 -3.8152 0.48467 -0.20642 -0.51184 0.037824 0.15295 -0.21797 0.13457 -0.033225 0.050667 -0.27304 0.068625 0.044091 0.05476 0.42983 -0.097939 -0.39739 -0.5662 0.30907 -0.23703 0.044659 0.11421 0.037242 0.10359 -0.34095 0.057119 0.2179 -0.088109 0.29482 -0.27058 0.25115 -0.19541 -0.40153 -0.011588 0.06588 0.12631 -0.11133 0.065236 -0.49371 0.12024 0.023392 -0.22731 0.24111 0.043545 0.45174 0.033129 -0.35101 0.011627 -0.24783 -0.0073581 0.069987 -0.011658 -0.46232 0.25989 -0.08553 0.1266 0.10312 -0.08449 -0.14967 -0.097133 -0.13534 0.34189 0.1726 0.29939 0.047591 0.44502 0.15541 0.21657 -0.22814 -0.10552 0.40904 0.27173 0.16697 -0.30234 -0.12966 -0.33201 0.10426 -0.34546 0.092742 0.14304 0.47429 -0.065439 -0.12105 0.20416 0.39673 -0.21699 0.15551 0.26407 -0.1832 -0.096908 -2.323 0.064027 0.30992 0.2679 -0.26404 0.0036676 0.33946 0.1023 -0.16509 -0.4292 0.24951 0.05996 -0.12307 -0.27009 0.15583 -0.43234 0.0024866 -0.019559 -0.25389 0.56508 -0.4766 0.37421 0.31412 0.31124 0.28229 0.18051 -0.37706 -0.51487 0.28345 -0.0028368 -0.10041 -0.047811 -0.27778 0.094042 -0.45536 0.12246 -0.032564 -0.1857 -0.3867 0.19274 -0.13602 0.30709 0.32674 0.65915 0.54475 -0.032234 0.15256 0.39952 -0.35454 -0.33099 0.053211 -0.074641 0.23669 0.54321 -0.044042 0.29683 0.17993 -0.089808 -0.21314 0.043428 -0.21483 -0.17645 -0.033826 0.11061 0.11374 -0.44003 0.16403 -0.43687 -0.061751 -0.51123 -0.21147 0.30318 0.16088 -0.19752 -0.34453 0.38826 -0.011031 -0.097371 0.078992 -0.018044 0.15748 0.12443 -0.10102 -0.4917 0.046117 0.15947 0.50364 -0.3623 -0.34887 -0.34679 0.045516 0.19426 -0.12418 0.59743 0.26795 -0.4891 -0.12981 -0.19427 -0.004675 0.022806 0.55857 0.28978 0.10273 -0.026816 0.010482 0.014597 -0.2677 0.11251 0.24925 0.20253 0.18144 -0.3595 0.35859 0.26103 0.083474 -0.067455 -0.32987 0.074878 -0.80199 -0.084227 0.0085653 -0.18151 -0.12478 0.076565 -0.059179 0.45292 -0.33665 -0.33977 -3.3617 0.23082 0.019261 0.26028 -0.38706 -0.15504 -0.50803 0.058691 -0.045022 0.30416 -0.32416 0.058367 -0.044146 0.16841 0.54287 0.02127 -0.12852 -0.16015 -0.92479 -0.09095 0.28128 0.14695 -0.18338 -0.03577 -0.053288 0.15952 0.39021 0.40893 0.17739 -0.2548 0.026666 0.016917 0.23806 -0.43437 -0.36226 -0.46419 -0.19474 0.15878 -0.10629 -0.51028 0.13523 -0.15301 -0.50073 -0.33924 0.067094 0.19871 0.17396 -0.1207 -0.13243 0.062831 0.15851 0.018312 0.21067 -0.13077 0.45117 -0.38458 1.1316 -0.49179 -0.13551 -0.34901 -0.29336 -0.1199 0.13424 0.28657 -0.39039 -0.062592 0.29015 -0.12254 0.11821 -0.070831 -0.11404 0.50759 0.14052 0.22052 -0.18247 -0.12746
people -0.18765 0.031913 -0.30078 -0.50019 -0.24776 0.19839 -4.3277 0.060046 -0.060995 -0.14238 -0.20083 -0.24775 -0.101 -0.39093 0.018961 0.021079 -0.31621 -0.1326 -0.22849 -0.099118 -0.060313 -0.48585 -0.10569 5.8611e-05 -0.17221 -0.32294 -0.24364 -0.44826 -0.1668 -0.010066 -0.73363 -0.18809 0.15434 0.13009 -0.20621 0.10304 -0.30857 -0.17477 -0.034302 -0.5286 0.52985 0.26645 0.26277 -0.19914 -0.094442 0.6071 0.35231 0.069442 -0.032074 0.068428 0.15373 -0.10989 -0.078793 -0.29766 0.13159 -0.40283 -0.025746 -0.25026 -0.27167 -0.10685 0.020926 -0.048667 0.41176 -0.03137 -0.28705 0.024811 0.2339 -0.2423 0.31439 -0.11751 -0.22445 -0.17002 -0.11368 0.14065 0.03957 -0.18007 0.55154 0.041155 0.28923 0.22896 0.3086 -0.94542 0.13813 -0.44012 0.082173 0.050927 0.53357 -0.35599 0.25317 0.50156 0.02604 0.082756 -0.37552 -0.0017053 0.10969 -0.45697 -2.4924 0.28144 0.40708 0.088754 -0.42175 0.4864 -0.13623 -0.33673 -0.24897 0.22708 0.17728 -0.67179 0.15629 -0.081131 0.14741 -0.063588 0.21006 0.066315 -0.037245 0.15587 -0.27679 -0.20782 0.52189 0.063484 0.2961 -0.39429 0.43299 -0.089975 -0.18874 0.13857 0.094664 -0.27684 -0.11004 -0.14921 -0.41327 0.010598 0.0067486 0.019846 -0.061809 -0.41823 0.044285 0.011266 -0.2304 0.30827 0.20846 0.068887 0.0018196 -0.21427 -0.061156 -0.47936 0.021048 -0.030834 0.32967 -0.28968 0.17176 -0.38249 0.30355 -0.15259 0.32393 0.29279 0.22673 -0.05703 -0.014067 0.42212 -0.23543 -0.34374 -0.36296 -0.031431 -0.21824 0.49778 -0.22864 0.041968 0.15218 -0.19103 0.014697 0.06561 -0.26663 -0.13852 -0.25551 0.30266 0.027152 -0.099685 0.1853 0.24704 0.14628 0.58924 -0.28153 -0.064105 0.15824 0.057144 0.0094169 -0.48101 0.39354 0.0019702 0.43354 0.08039 -0.24066 -0.045709 -0.01029 -0.012473 0.37293 0.045955 -0.047163 -0.39446 -0.2725 0.08705 -0.0066303 -0.34939 -0.073816 0.12129 0.059332 -0.049271 0.45981 0.12873 -0.26805 -0.2618 0.22851 0.23018 -0.029349 0.16228 -0.16758 0.055606 0.15163 0.21893 -0.080738 -0.16436 0.16505 -0.044323 -2.6231 0.3681 -0.049343 0.1279 0.19026 -1.0043 0.32246 0.24326 0.075079 -0.081251 -0.29256 0.068762 -0.051905 -0.54438 -0.024167 0.148 -0.61046 0.096219 -0.071591 0.011948 -0.21999 -0.065179 -0.52368 -0.01891 0.0075898 0.063576 -0.046546 -0.22926 -0.049006 0.31373 0.25791 0.18549 -0.32028 0.041552 0.54569 0.098578 -0.22345 0.052183 -0.13675 -0.085878 0.35931 0.29255 -0.074207 0.16652 0.43867 0.38776 -0.29167 -0.072642 -0.43582 -0.28675 -0.37779 -0.30107 0.54553 0.21001 0.13604 0.13672 0.34979 0.061173 -0.16857 0.14675 0.072638 0.15913 -0.04744 -0.18904 -0.32688 0.0084091 0.12754 -0.46728 0.047944 -0.28357 0.25014 -0.30604 -0.27469 0.21789 0.49066 -0.22605
good -0.069254 0.37668 -0.16958 -0.27482 0.25667 -0.20293 -4.1122 0.02595 -0.27085 -0.87003 -0.010262 -0.10048 -0.06171 -0.2111 -0.37652 0.10446 0.054106 -0.25225 -0.12505 -0.13461 0.34004 -0.28599 0.048589 -0.088778 -0.1075 -0.41175 -0.15396 0.043628 0.2569 0.072977 0.0054217 0.17869 0.033359 -0.14776 0.29636 -0.022996 -0.14727 -0.13191 -0.10101 -0.087417 0.37875 0.45906 0.15273 -0.46257 0.10971 0.11215 0.3537 -0.070427 0.12163 0.14172 0.1446 0.25895 -0.33227 0.079101 -0.35241 -0.2289 0.22345 -0.78325 0.092271 -0.00085687 0.090918 -0.24656 0.42705 0.39094 0.17893 -0.3845 0.16025 0.27283 -0.06865 -0.6054 -0.093618 -0.21983 0.14938 -0.36877 0.06764 -0.34506 -0.012956 -0.32634 0.074251 -0.10923 0.25341 -0.41979 -0.13252 -0.17097 -0.079356 -0.2325 0.0058086 0.19993 0.23238 0.2157 -0.12246 -0.13046 -0.31743 0.3314 -0.19361 -0.17644 -2.5181 -0.26868 0.074853 0.22698 -0.18673 0.00082463 -0.055052 -0.42778 0.43157 -0.17586 0.19205 -0.45886 -0.028985 -0.14368 -0.13116 -0.45942 0.068199 -0.21722 -0.0012003 0.16619 0.31765 0.44675 0.16646 0.31166 -0.13728 0.21238 0.13052 0.14066 0.059936 -0.27959 -0.0084466 -0.10412 0.053323 -0.11507 -0.26689 0.25099 0.2139 0.08904 -0.48881 -0.41367 0.16764 -0.15101 0.27321 0.81762 0.16062 0.26213 0.29812 -0.37964 -0.20038 -0.33282 -0.20674 0.011145 0.48624 -0.18081 0.21148 0.09421 0.10734 -0.043903 0.33546 -0.099775 -0.32007 0.31814 -0.36524 0.015942 0.27645 -0.081925 -0.17043 -0.038892 -0.25588 -0.034502 5.5448e-05 -0.15337 0.089024 -0.28098 0.21904 0.21623 0.037049 -0.23251 -0.15753 0.11148 -0.11152 -0.11257 -0.099576 -0.32894 -0.14104 0.097686 0.041718 -0.043592 0.21685 0.31241 -0.40701 -0.040123 0.53255 0.52923 0.045658 -0.6423 0.11118 0.11503 -0.64747 0.31237 -0.047818 0.026945 0.12965 -0.12246 -0.10079 0.2526 -0.12793 0.25032 -0.1584 -0.058036 -0.0098454 -0.18943 0.43251 -0.1592 -0.18431 0.40887 -0.089603 -0.03446 0.24261 0.030075 -0.27923 0.056072 -0.56211 -0.49596 -0.17498 0.11593 0.11213 -0.97216 -2.7094 -0.11107 -0.19397 0.18163 -0.19014 0.10133 0.098451 -0.29643 -0.33579 -0.34975 0.10985 0.075655 -0.14723 0.16938 0.062295 -0.18339 0.13976 -0.084648 -0.71349 0.271 0.074566 0.26985 -0.042376 0.35879 -0.10065 0.24068 0.19365 0.19107 -0.1862 0.018224 0.1443 -0.11933 0.26601 -0.14491 -0.38909 0.22817 0.15689 0.095238 0.29928 -0.13376 0.51229 -0.058114 0.051375 -0.37982 -0.099555 0.098564 -0.19608 0.4492 -0.20517 -0.041098 -0.27348 0.059709 -0.261 0.05403 -0.36759 0.12725 0.67861 -0.46327 0.17716 0.34219 0.49006 0.47282 -0.03946 0.39304 -0.023976 -0.60973 -0.48476 -0.33363 -0.075956 0.15827 0.29431 -0.074275 -0.28909 -0.22028 0.088971 -0.028352
home 0.16941 0.25784 0.013124 0.45437 -0.053239 -0.15837 -2.9361 -0.67689 0.33931 -0.21923 -0.23056 -0.14042 0.076806 0.31562 -0.21778 -0.23224 -0.10779 -0.099824 -0.05553 -0.34525 -0.19045 0.44376 -0.13507 0.033759 -0.18057 0.55913 0.16603 0.046921 -0.2628 -0.043285 -0.65541 -0.019814 0.37893 -0.059956 0.099959 0.2049 -0.17434 0.23957 0.53859 -0.50081 -0.37724 -0.016174 -0.2062 0.12385 0.053731 -0.30635 0.12546 -0.20388 -0.085221 -0.59035 0.069568 -0.17219 0.77612 -0.090447 0.052707 0.17801 0.39541 0.3774 0.087059 0.023548 -0.3183 -0.73675 -0.11808 -0.39267 -0.098212 -0.069409 -0.14932 0.45226 -0.3808 0.35104 -0.024976 -0.004806 -0.0057871 0.36443 -0.31516 0.23814 -0.0016128 0.027941 0.41947 -0.65333 0.22435 -0.43959 0.30137 0.50585 0.24636 0.28453 0.1147 -0.06717 0.39143 -0.024062 -0.51047 -0.051578 0.18995 0.26285 -0.018873 -1.3752 -2.7324 0.021114 -0.11364 -0.61196 -0.21918 0.31534 -0.062725 -0.20461 0.19394 0.26898 -0.14598 0.29084 0.40869 -0.45702 0.3149 0.26619 0.24853 0.18164 -0.52748 -0.31388 0.11815 0.64912 -0.091878 0.09401 -0.49227 -0.46214 0.16191 -0.099322 0.12117 0.1272 0.60299 -0.31755 0.30019 -0.092725 0.15856 0.091884 -0.13798 0.25094 -0.25275 0.37988 -0.079806 -0.032931 -0.03079 1.1682 -0.0052179 0.12135 -0.80276 0.066071 0.38639 0.79642 -0.013354 0.013715 0.43412 -0.26675 -0.030848 0.36868 -0.31805 0.3363 -0.18606 -0.0585 -0.12772 -0.081754 -0.83725 -0.43559 0.0047158 -0.26654 -0.25545 -0.37449 -0.28442 0.16295 0.22257 -0.17218 -0.05054 0.012162 0.26746 -0.37342 0.39827 -0.23321 -0.11687 -0.2323 0.33882 0.39577 -0.14349 0.085316 -0.2177 -0.23425 0.092274 0.3439 0.070321 -0.21735 -0.18224 -0.060137 -0.34868 -0.13282 -0.12335 0.055411 0.22407 0.10065 0.20439 -0.72058 -0.1521 -0.26844 -0.042037 0.035188 -0.24107 0.094358 0.55132 -0.056069 0.018539 -0.064314 0.69246 -0.53598 0.45011 0.34551 0.40053 0.09352 -0.72155 -0.62428 0.4855 -0.13884 0.05862 -0.053309 -0.27455 -0.16761 -0.30018 0.35658 -0.28139 -0.57292 -3.7307 0.18581 -0.014962 0.12809 -0.35182 -0.10467 0.23532 0.20022 -0.044537 -0.198 -0.34155 0.80565 0.40066 0.13526 0.39484 0.041076 -0.37165 -0.10165 -0.6639 -0.059761 -0.13418 -0.30357 0.39221 -0.46933 -0.029658 0.069928 0.43685 -0.21609 0.37971 0.31963 0.13106 -0.55411 0.012809 -0.20284 -0.22864 0.17727 0.12646 -0.58899 -0.24321 -0.045102 0.26915 -0.020962 -0.29812 0.12449 0.053274 0.62132 -0.013682 -0.024536 -0.041581 0.16013 0.2352 -0.40467 0.16282 -0.070462 -0.089098 -0.27597 -0.017173 -0.056522 -0.23355 -0.27647 -0.090231 0.096935 0.37129 0.26186 -0.11849 0.1059 -0.21584 0.027329 -0.367 -0.6985 -0.439 -0.13286 -0.53111 -0.10348 0.11648 -0.56248
day -0.071926 0.21988 0.044744 -0.4694 -0.31449 0.4571 -2.9227 0.13228 0.11353 -0.49006 0.37704 0.062754 -0.0036399 0.23693 -0.019053 -0.064741 -0.41081 0.36762 -0.27006 -0.0077157 -0.11636 0.064334 0.19519 -0.13962 -0.21787 -0.69048 0.16706 0.31951 0.36963 0.19583 -0.69434 0.021771 0.71834 -0.029554 -0.16863 -0.11131 -0.43186 -0.1371 -0.13607 -0.13489 -0.1042 -0.0025399 -0.12306 -0.18023 -0.092699 0.10389 0.0049999 0.28811 -0.54764 -0.097245 0.13212 0.18908 0.059171 0.31341 -0.19492 -0.30988 0.026769 0.096659 -0.31938 -0.079771 0.10685 0.12036 0.19802 -0.065817 -0.81331 -0.24834 0.39005 0.060624 0.41485 0.14095 -0.78147 -0.039544 0.16587 0.15582 -0.12158 0.10103 -0.039519 0.18037 -0.18533 -0.31219 -0.031199 -0.52864 0.10889 -0.14225 0.017948 -0.083069 -0.0033508 -0.10147 -0.19229 0.33657 0.15808 -0.10381 0.50042 0.073999 -0.022351 -0.023877 -2.098 0.27714 0.14668 0.23327 -0.074337 -0.2509 0.48954 0.040814 -0.34494 -0.21757 0.25814 0.20348 -0.21525 0.23765 0.44094 -0.36349 0.060504 -0.071453 0.063276 0.64209 -0.67805 0.23749 -0.19557 0.22207 -0.29788 0.38971 0.2126 -0.098284 0.19262 -0.19943 0.54069 -0.13011 -0.1648 -0.10169 -0.22982 -0.31864 0.088072 -0.45636 0.018975 -0.27222 -0.03331 0.15634 0.4604 0.5701 0.2394 0.16792 -0.38389 0.08692 -0.13467 -0.2635 0.068584 -0.049842 0.81456 -0.13018 0.3035 0.18214 0.14458 0.085826 -0.20654 0.31061 -0.32403 0.19565 0.13239 0.018072 0.33075 0.0036642 0.012989 -0.32735 0.25105 -0.02901 -0.059717 0.34945 0.19404 -0.2725 0.42867 0.12129 -0.045449 -0.28589 0.02402 -0.073012 0.12823 0.25046 -0.023488 -0.13394 0.57041 0.026038 0.034233 -0.18314 -0.29598 -0.43988 0.074883 -0.099745 0.14034 0.62922 -0.096361 0.15019 -0.54746 0.23228 -0.11164 -0.36793 0.18859 -0.089115 0.016685 0.12208 0.073308 0.61418 0.020962 -0.10343 -0.17685 0.091753 -0.003331 -0.36116 0.11438 0.044704 0.0228 -0.13807 -0.38461 0.092033 -0.44075 0.17757 -0.64409 0.14035 -0.27509 0.12492 -0.29201 0.58046 -0.23751 0.10796 -4.06 0.050752 -0.1114 0.28574 -0.50347 0.070359 -0.16312 -0.1075 -0.30263 -0.11302 -0.055237 0.29238 0.03863 -0.31138 0.42648 0.6402 0.050636 -0.15498 -0.50342 0.69389 -0.095234 0.32149 -0.14724 -0.10787 0.028059 -0.022129 0.28202 0.068372 -0.020521 0.25115 0.096899 0.039732 0.30058 0.18913 -0.52351 -0.2009 -0.1149 -0.18695 0.037281 0.015927 0.85165 0.37985 0.041512 -0.37086 0.16792 -0.017084 0.011114 -0.31705 -0.48562 -0.40755 -0.17246 0.10153 0.31824 -0.50464 0.080787 0.090305 0.57598 -0.1513 -0.43349 -0.25282 0.043794 -0.047022 -0.26953 -0.046598 -0.2573 -0.15221 0.35076 0.15804 0.2355 -0.5464 -0.27502 0.29055 0.26578 0.23363 -0.29235 -0.22122
great -0.033819 0.27263 -0.20301 -0.2931 0.10489 -0.21142 -3.5503 -0.63335 -0.2828 -0.45047 -0.36612 -0.15207 0.20128 0.18632 -0.073614 -0.083101 0.079977 -0.17294 0.063676 0.14148 0.49516 0.19244 0.056514 0.077089 0.11047 -0.23373 0.25121 0.36061 -0.048826 0.18796 -0.09089 0.13378 0.35421 0.33003 0.11613 -0.36406 -0.053876 -0.24451 0.55024 -0.23097 0.20325 0.183 0.00010581 -0.29843 0.11773 -0.0026515 0.36304 -0.32342 0.24199 0.17851 0.11523 0.3044 -0.18888 0.19257 -0.16261 0.08141 -0.057838 -0.48812 -0.16119 0.38773 0.23979 -0.43265 0.36026 0.38992 -0.12537 -0.55429 0.13395 0.062401 -0.060572 -0.43905 -0.37487 -0.23712 -0.28385 -0.2521 0.24914 -0.24994 0.20835 0.13709 0.43301 -0.053759 -0.20518 -0.49129 -0.68604 -0.22078 0.0099021 -0.16405 0.41502 0.098981 -0.1371 0.068007 -0.24918 0.018734 0.012406 0.41437 0.23623 -0.33465 -2.6844 -0.2534 0.0054184 -0.19369 -0.14801 -0.12068 0.098954 -0.22197 0.072326 -0.057466 -0.062993 -0.46517 -0.19076 0.0035611 -0.13454 -0.26546 -0.27104 -0.25418 -0.055994 0.043408 0.41008 0.24419 0.10483 0.21006 -0.087925 0.49121 -0.22191 0.0069359 -0.027801 -0.23558 -0.077343 0.16032 -0.17173 -0.022874 -0.27705 -0.21938 -0.09479 -0.16337 -0.11758 -0.20088 -0.15098 -0.35678 0.70537 0.80942 -0.059433 0.43013 0.528 -0.55479 -0.38068 -0.036658 -0.016285 -0.077236 0.54108 -0.48053 0.27921 0.28187 0.0027413 0.039758 0.44696 0.093455 -0.13141 0.29204 -0.30954 -0.14733 0.083598 -0.26625 0.19987 -0.28445 -0.32883 0.055245 -0.43607 -0.21404 0.55046 -0.33024 0.13664 -0.018556 -0.21288 -0.083186 -0.056902 0.037478 0.091748 -0.41017 -0.20458 -0.28062 0.34142 0.35164 -0.29481 -0.096082 0.56916 0.21673 -0.52733 -0.1638 0.28462 0.56921 0.29046 -0.71559 -0.092329 0.1373 -0.48442 0.30353 -0.14307 -0.08281 0.12184 0.11626 -0.53713 -0.15927 0.25258 0.11066 -0.4158 -0.16116 0.045395 0.085398 0.37481 -0.051063 -0.13259 0.29805 -0.24483 -0.112 -0.11323 0.12779 -0.31961 0.094691 -0.056431 -0.15069 0.25041 0.26137 0.029227 -0.42475 -3.0786 -0.48589 -0.11362 0.18243 -0.062697 0.45399 0.10138 -0.48376 -0.44677 -0.12344 -0.059203 0.34234 -0.34703 -0.010318 0.19014 -0.044257 0.40428 0.082698 -0.91196 0.13361 -0.36682 -0.09281 -0.076914 0.026798 -0.03689 0.32502 0.24197 0.32316 -0.08338 -0.088566 0.1388 -0.30547 0.51597 -0.19552 -0.20661 -0.035328 0.31822 0.23478 0.14662 -0.059459 0.34496 -0.41313 0.041587 0.030463 -0.41444 0.016954 -0.19607 0.44508 -0.48607 -0.34513 -0.1539 0.018211 0.056174 0.12479 -0.13679 0.031663 0.72031 -0.091717 0.1196 0.27043 -0.022466 0.55137 -0.13864 0.14037 -0.21725 -0.31669 -0.17344 -0.23784 -0.24187 -0.012594 0.23626 -0.15235 -0.21312 -0.18458 0.024633 0.039906
free -0.61984 -0.31242 0.39918 0.48442 0.17436 0.42494 -3.1734 0.094 -0.45539 -0.65336 0.17044 -0.1173 0.555 0.21381 -0.17944 0.17799 -0.41212 0.33926 -0.30581 0.026446 0.050631 0.17718 -0.25326 -0.14871 0.38141 0.029286 -0.021158 -0.57924 0.37581 -0.64201 0.078625 0.24096 0.86462 -0.30952 -0.16532 -0.20765 -0.034054 -0.059644 -0.3243 0.30963 -0.36627 -0.16381 -0.89795 -0.37914 0.22892 -0.35808 0.3252 -0.51548 -0.50033 -0.055552 -0.060002 0.27708 -0.53542 -0.34424 -0.48689 0.55142 0.057456 0.40956 -0.36673 -0.17078 0.50464 0.25287 0.163 -0.096169 0.11791 0.42612 0.30095 -0.47356 0.13088 -0.24292 0.67593 0.24071 0.12251 -0.12294 -0.2238 -0.38018 0.32098 0.92439 0.32886 -0.26421 0.23889 0.2951 -0.44848 0.066221 -0.2018 0.38905 0.25931 0.24225 -0.24296 -0.36946 0.3389 0.28937 -0.12027 0.050581 -0.32897 -0.50421 -3.0968 0.14058 -0.039946 0.087741 -0.18117 -0.17073 0.17737 -0.17035 -0.19828 -0.14903 -0.27845 0.22114 0.24196 0.28578 -0.34542 0.41762 0.50154 -0.24457 -0.16113 -0.26364 0.37516 0.26168 -0.53108 0.35774 0.020871 0.18547 0.37766 0.58747 0.47165 0.33531 -0.045839 -0.037981 0.40009 -0.095028 -0.071529 0.62987 0.53232 0.6177 -0.25475 -0.20721 0.039013 -0.83607 0.19463 0.85068 0.33815 0.36444 -0.63316 -0.23955 -0.4733 -0.17042 0.12909 -0.48545 0.13078 -0.46281 -0.43079 0.14184 0.17021 0.11017 1.1212 -0.27064 -0.48738 0.26896 0.080086 0.044673 0.055285 -0.28822 -0.30346 0.71925 -0.36417 -0.29041 0.35815 0.39303 0.70254 0.13584 0.32356 0.39715 -0.23901 -0.17136 -0.4773 -0.20299 -0.37813 -0.11852 -0.013663 -0.018283 -0.061394 -0.43013 -0.38278 -0.82997 -0.0093784 0.093954 -0.22581 0.42745 0.29752 0.065955 0.30048 -0.35274 -0.094712 -0.14756 0.44895 -0.69629 0.11977 -0.22186 -0.27337 0.087233 -0.76485 0.12845 0.33962 0.2799 -0.04691 0.14423 0.20226 -0.17588 0.164 -0.26453 -0.59851 -0.44041 -0.67486 0.70731 -0.15822 0.13514 -0.22393 -0.46734 -0.29299 -0.43531 -0.32069 0.09617 -0.48215 0.050364 -3.2896 -0.15038 -0.14906 0.074343 0.050736 0.54371 0.7407 0.63246 0.05173 -0.11853 -0.08206 0.13769 0.086667 -0.34072 0.24539 -0.077362 -0.37561 -0.32683 0.47631 0.90181 0.64193 -0.011752 0.087684 -0.026812 0.039999 -0.010554 0.32869 -0.2744 0.233 -0.48926 0.24671 -0.34099 0.10253 -0.64455 -0.56738 -0.329 0.27342 0.23932 -0.12359 0.25117 -0.26746 -0.0094476 -0.16196 0.27172 -0.31761 0.57442 -0.16885 0.30654 0.22519 0.0054951 -0.73916 -0.12187 0.63316 0.082624 1.2595 0.097352 -0.069293 0.091564 -0.77943 -0.073698 -0.12818 0.12361 0.035258 -0.49488 0.90579 0.47882 -0.31838 -0.28708 0.17423 0.069032 -0.54077 -0.18007 -0.42689 0.53484 0.21397 0.20285
back 0.27735 -0.1023 0.17601 -0.29275 0.24602 -0.33312 -3.541 0.051742 -0.044801 -0.50495 -0.3014 -0.11587 0.084351 -0.35015 0.16695 -0.052575 -0.099274 0.68321 -0.088246 0.19421 -0.10974 0.029062 0.19363 -0.2213 -0.14618 0.20562 0.44301 0.26477 0.11073 -0.10038 -0.50551 -0.1102 0.31972 -0.26064 -0.37231 -0.034651 -0.11138 -0.098207 0.37874 0.25359 0.2998 0.75415 0.086166 -0.32003 0.1819 -0.24921 0.067194 0.080895 -0.044225 0.10242 -0.27623 -0.11872 0.060971 0.093022 0.079215 0.08575 0.23101 -0.38653 0.18702 0.19029 0.095667 -0.40003 0.055589 0.34409 0.33779 0.19725 -0.27753 0.32961 0.090956 -0.17864 0.0027648 0.010211 -0.37117 0.15962 0.12188 -0.28832 -0.022766 -0.16576 0.26733 -0.31927 -0.34378 -0.12656 -0.017318 -0.12391 -0.15157 0.30685 -0.096431 -0.09388 -0.64344 0.085974 0.11963 0.25983 -0.29582 -0.24343 0.12467 -0.39009 -1.7943 -0.20957 0.11146 -0.39626 -0.31635 0.22201 0.15162 0.25899 -0.67935 -0.16682 0.47302 0.13064 0.14233 -0.10293 0.13705 0.33858 0.31203 -0.0054773 -0.37299 0.32194 -0.16207 0.071403 -0.061918 0.18085 -0.14937 0.15253 0.19123 0.074889 -0.13087 -0.27603 0.13429 -0.27763 0.14466 -0.21431 0.010713 0.25986 0.09031 -0.013559 -0.19379 0.30378 0.011037 0.038616 0.37044 0.61553 -0.1758 -0.16865 0.58022 0.36306 0.21985 0.04799 -0.28641 0.08625 0.23264 0.31788 -0.12248 -0.09975 0.02971 -0.27104 0.21673 0.14112 -0.66171 -0.19106 -0.045338 -0.22036 0.26818 -0.57423 -0.31913 -0.11585 0.10823 0.32017 0.13668 0.14666 0.52385 -0.3381 -0.42485 0.45168 -0.11351 -0.027402 -0.27247 0.06551 -0.17429 0.42001 -0.073547 0.36694 -0.16105 -0.14588 -0.12889 0.15017 0.15194 -0.085827 0.027869 -0.32899 -0.04631 -0.1901 0.26748 -0.075119 0.31169 -0.0046288 -0.62744 -0.54392 0.51945 0.32146 -0.071366 -0.21991 0.62994 -0.1501 -0.19143 -0.20718 0.040349 0.123 0.00010271 -0.3712 0.51511 -0.0089898 0.027072 -0.14233 -0.27336 -0.25986 0.18565 -0.34369 -0.22685 0.28696 0.35969 -0.03842 -0.014692 0.011052 0.042053 0.072642 -3.7068 -0.20649 0.049685 -0.16353 -0.23526 -0.31973 -0.18341 -0.026706 -0.069494 0.6639 -0.29422 0.50135 -0.51839 0.35846 -0.54357 -0.19206 -0.25837 0.087488 -0.22344 0.39508 0.096564 0.36174 0.18112 -0.1483 0.16033 0.099567 0.1632 -0.24221 0.55484 0.17503 -0.13421 0.010683 0.42704 -0.34341 -0.33965 0.17587 0.40471 -0.11205 -0.15525 -0.22358 0.072829 -0.19074 -0.12916 -0.41971 0.013326 0.13311 0.042467 0.011276 -0.3473 -0.14193 0.00021769 -0.12788 0.10737 0.23614 0.10132 -0.20526 0.89991 -0.098271 0.1189 0.058998 -0.25903 -0.020848 0.03972 -0.15981 -0.039672 0.23919 0.28218 0.28142 -0.16768 -0.1431 0.043315 0.3717 -0.16692 -0.12943 0.35197 -0.2682
work 0.24856 0.12504 -0.11811 -0.020107 -0.19259 0.17183 -4.1861 -0.082146 0.19802 -0.07637 0.15527 0.12613 0.40612 -0.30742 -0.28957 0.18259 0.17393 -0.082727 0.43018 -0.01961 -0.2741 0.1905 -0.012813 -0.1458 -0.17732 -0.15307 0.15221 -0.22869 0.11349 0.17235 -0.091059 -0.067572 0.29137 -0.28269 -0.47635 -0.29601 -0.2752 -0.2682 -0.1387 -0.35205 0.066812 0.24935 0.028833 -0.19139 0.19894 -0.20895 0.14688 -0.24328 0.28206 -0.0149 -0.26507 0.099526 -0.0099587 -0.59566 0.18172 0.22473 0.098032 -0.15408 -0.21258 0.12329 0.14884 -0.196 -0.01023 -0.095415 -0.30684 -0.27843 0.10503 0.036147 -0.2073 -0.65673 -0.082936 -0.1883 -0.29424 -0.23927 -0.22955 0.062137 0.46627 -0.19904 0.085099 -0.0061559 -0.18736 -0.69615 -0.10497 -0.30789 0.26104 -0.2385 0.04032 0.058869 0.4111 0.4375 0.061636 0.31022 0.33817 -0.23078 -0.23607 -0.28799 -2.8322 0.10763 -0.050105 0.40325 0.35889 -0.17149 0.15158 0.061853 -0.071521 -0.27301 0.093329 0.36281 -0.013649 0.16524 -0.15542 -0.0051075 0.027505 -0.1338 -0.013077 0.26583 -0.3922 0.2638 -0.072479 0.60405 0.26272 -0.011348 -0.0015246 -0.13125 0.056516 -0.33821 -0.42305 -0.1396 0.10955 -0.11785 0.10131 -0.035467 0.14312 0.12438 -0.78666 0.0030901 -0.012119 0.20685 0.05771 0.58404 -0.047672 0.043446 0.077065 0.0037338 -0.00067006 -0.072422 0.17758 -0.31616 0.55233 0.066647 0.13509 -0.081599 -0.00089464 -0.20905 0.25527 -0.18978 -0.011321 0.016629 -0.026635 -0.38516 0.07088 -0.28548 0.32063 -0.23847 -0.032374 -0.16912 -0.10515 0.12034 0.15778 -0.28674 0.16836 -0.13702 -0.20618 0.11786 -0.22283 -0.30206 -0.2545 0.063781 0.17852 -0.20012 -0.030465 0.38429 0.084549 0.42276 -0.21478 -0.38706 -0.0044387 0.038619 -0.10064 0.22111 0.23039 -0.26591 0.26352 -0.077019 -0.30501 0.21519 0.017459 0.057064 0.098469 0.079788 0.45978 0.035212 -0.60986 0.14369 0.085543 0.15393 0.13663 -0.051828 0.26118 0.25878 0.0085102 0.060593 -0.35468 -0.62547 -0.34566 0.13142 -0.044661 0.09601 -0.10526 -0.42629 -0.017541 -0.083007 -0.081157 0.13857 -2.2146 0.16477 0.23048 0.15701 -0.43106 -0.034325 0.32721 0.25318 -0.2761 0.16261 -0.44189 0.49208 -0.015147 -0.16064 -0.018755 0.42112 0.409 0.46649 -0.62058 0.3025 -0.43091 -0.14523 -0.4051 -0.28917 -0.23483 0.1105 0.23647 0.19077 0.2521 0.26296 0.18634 0.14754 0.26112 -0.019222 0.50406 -0.032018 0.22916 -0.23618 -0.054921 0.036014 0.39601 -0.25223 -0.28369 -0.23332 -0.19753 -0.40731 -0.35108 -0.13835 -0.39073 0.091482 0.056348 0.12101 0.3566 -0.086471 -0.014113 -0.033404 0.81539 -0.19908 -0.072617 -0.030766 -0.1304 0.1073 0.53308 -0.086197 -0.11351 -0.36478 0.061974 -0.097475 -0.15831 -0.74147 0.094125 0.15661 -0.12383 0.29697 0.076879 0.028466
year -0.1424 0.23713 -0.39057 -0.07311 0.3553 -0.07213 -3.0864 0.38436 -0.26778 -0.20027 0.14898 0.45742 0.21269 -0.1531 0.18688 -0.15698 0.065033 -0.048631 -0.23764 0.40033 0.51223 0.27246 -0.33327 0.075138 -0.47034 -0.18123 0.39304 0.067642 0.1532 0.497 -0.52482 0.096122 -0.083464 0.094474 -0.3108 0.0039169 -0.20585 0.79736 0.13143 -0.17278 -0.1319 -0.13695 0.47299 0.17741 -0.31142 -0.30928 0.08761 0.25012 -0.69745 0.22594 0.35158 0.29656 0.41315 0.18174 0.13404 -0.3678 0.028399 0.41781 -0.10088 0.36607 -0.30281 -0.36929 0.31273 0.21106 -0.54009 0.23604 0.1661 0.32307 -0.026003 0.054128 -0.5572 0.095873 0.33894 -0.39044 0.055129 -0.54555 -0.47377 -0.0072365 -0.0064361 -0.029842 0.37989 -1.3738 -0.18449 -0.32014 0.19801 -0.35385 -0.29055 -0.088511 -0.027548 0.053798 0.17127 -0.45211 0.17625 -0.21497 -0.33399 0.043313 -1.8016 -0.18882 0.29039 0.22636 0.17004 0.45196 0.63632 -0.24711 0.010842 -0.03773 0.96205 0.30786 0.07024 0.11452 -0.24098 0.12101 -0.057309 -0.004917 -0.081529 0.3941 -0.23163 0.31585 0.1503 0.15369 0.09544 0.0039341 -0.16918 -0.40537 0.069187 -0.060478 0.71515 -0.090341 0.038318 0.1191 0.061763 -0.60912 0.17043 -0.58971 -0.21926 -0.35649 -0.23872 -0.040103 0.25561 0.13739 0.077655 -0.42731 -0.28317 0.051758 0.099538 -0.37342 0.064814 0.21677 -0.071659 0.15316 -0.068978 0.18281 0.061492 -0.022231 -0.38286 -0.092022 0.028896 0.028349 -0.43689 -0.32328 0.17611 -0.11544 0.32841 -0.22402 0.3547 -0.43426 -0.19889 0.17702 0.34612 -0.27482 -0.2273 -0.028715 0.027236 -0.67582 0.026345 0.23939 0.061051 0.2098 -0.6708 0.30915 0.2161 0.58177 0.31862 -0.47531 0.1197 -0.065802 -0.56771 -0.030357 0.1221 -0.050537 0.10029 0.16231 -0.023009 -0.33049 0.18917 0.077227 -0.056398 0.4343 -0.069766 0.1782 0.14731 -0.075924 0.29513 0.22397 -0.15173 0.29565 0.041151 -0.17955 0.056536 0.20484 0.0068544 -0.08079 0.29702 -0.012516 -0.039188 -0.16716 -0.51861 0.28338 -0.19028 0.21677 -0.14159 0.39821 -0.15129 0.17401 -3.9122 0.45198 0.09993 -0.31698 -0.55688 -0.19793 -0.039335 -0.33243 0.0074145 -0.31005 -0.62846 0.11166 -1.0024 0.23391 -0.12681 0.29576 -0.3255 -0.21387 -1.0394 0.4941 0.49803 0.10739 -0.21649 0.12185 -0.16609 -0.10772 0.10914 -0.046203 0.33079 -0.26701 -0.012018 -0.19847 0.13741 -0.081987 -0.51538 0.47685 -0.088366 -0.089419 0.088256 0.19624 0.47514 -0.082183 -0.12526 0.15328 0.078179 0.060054 -0.088509 0.24194 -0.16208 -0.0034088 0.014976 0.40733 -0.010223 -0.15665 0.45261 -0.20752 0.30026 -0.0029652 -0.24111 -0.16457 0.24107 0.010458 0.38094 0.058253 0.1946 0.14421 0.31621 0.12786 0.21591 -0.56993 -0.085212 -0.38445 0.49435 0.36237 0.23729 -0.090785
years -0.15792 0.34253 -0.40282 -0.022751 0.19285 0.099189 -3.2185 0.090727 0.088957 -0.27256 -0.097225 0.093262 -0.18836 -0.071615 0.16831 0.12759 0.25331 -0.31808 0.10452 0.069524 0.30064 0.23839 -0.53042 0.21566 -0.016288 -0.12242 0.62068 -0.10132 0.3437 0.10287 -0.63348 -0.21043 -0.080643 0.076496 -0.17334 -0.31234 -0.2068 0.51166 0.31978 -0.082389 -0.17094 -0.12484 0.43361 0.13709 -0.42204 0.073512 0.24965 0.21267 -0.42308 0.37121 0.28838 -0.053969 0.49301 0.14415 0.13746 -0.073568 0.17166 0.11212 -0.55375 0.71135 -0.012776 -0.47289 -0.063278 -0.076384 -0.18872 -0.24678 0.28229 0.27898 0.093032 -0.15953 -0.43189 0.24026 0.4835 -0.13679 -0.41973 -0.048147 0.14321 -0.35631 -0.040965 -0.041797 0.51298 -1.6411 -0.17485 -0.17805 -0.049776 0.11849 -0.0097183 0.19398 -0.22611 0.1867 0.27257 -0.38838 0.035047 -0.29753 -0.24053 0.16214 -1.8895 -0.026746 0.29854 0.036834 0.18054 0.55904 0.54736 -0.21961 -0.28039 -0.099753 0.48328 -0.22457 -0.074799 -0.27626 -0.21661 0.25757 -0.019191 0.26261 -0.14936 0.57177 -0.21024 0.55861 0.38384 0.28128 0.12007 0.089918 -0.4159 -0.36674 0.18383 -0.03538 0.49595 -0.18507 -0.066747 -0.098845 -0.28187 -0.44141 -0.039139 -0.13672 -0.2791 -0.30388 0.00016016 -0.13132 -0.03042 0.14803 0.062716 -0.1327 -0.1151 0.059872 0.095094 -0.61453 0.0394 -0.17757 0.10923 -0.20795 0.28201 0.0083703 0.0024128 -0.52102 -0.23371 -0.26684 0.0081163 -0.13905 -0.33455 -0.43802 -0.24153 0.10194 0.17793 -0.21023 0.52657 0.023415 -0.057509 0.14644 0.3418 -0.4075 -0.12702 0.13854 -0.19928 -0.42744 -0.37211 0.19035 0.15822 0.14748 -0.41786 0.62282 -0.32938 0.52268 0.21346 -0.14319 -0.07565 -0.13835 -0.42379 0.044912 -0.26389 -0.21841 0.25783 -0.45738 0.14056 -0.16351 -0.41169 0.11176 0.37496 0.20692 0.09525 0.078857 0.17708 -0.1207 0.31642 0.10156 -0.21845 -0.1725 0.17827 -0.075416 -0.32208 0.13654 -0.44755 -0.2212 0.74482 -0.27463 -0.44493 0.072267 -0.38787 0.21173 0.15951 0.32774 -0.060238 0.13973 -0.032829 0.036311 -3.5779 0.34993 0.29193 -0.35015 -0.31602 -0.46172 -0.092957 -0.080797 -0.013343 0.24965 -0.80119 -0.064858 -0.42489 0.15636 0.24554 -0.11103 -0.24653 -0.1658 -0.56932 0.22304 0.63148 -0.09699 -0.50296 -0.11153 -0.25161 0.16221 0.32742 0.18898 0.3094 -0.14125 -0.27661 -0.047693 0.10362 -0.14583 -0.16264 0.4713 -0.27541 -0.16652 -0.050566 0.14414 0.7059 -0.42432 -0.17184 0.22891 0.065431 -0.11509 -0.024299 0.50105 -0.4759 -0.032847 0.18352 0.58601 0.093767 0.025104 0.31389 -0.17694 0.70273 0.20988 0.041588 0.05397 -0.1279 -0.3537 0.48622 -0.093544 -0.11866 0.58942 0.38209 -0.19752 -0.041177 -0.71321 0.1457 -0.19445 0.13863 0.3965 0.40599 0.013879
love -0.14928 -0.0068072 -0.24947 0.094759 0.077483 0.15703 -3.4127 -0.71732 -0.4116 -0.96051 0.32429 0.13949 0.38372 -0.037111 -0.19793 -0.24184 0.13325 -0.24184 0.14527 0.52628 0.35162 -0.059794 0.67554 0.44709 -0.021981 -0.44913 -0.40704 0.13181 -0.13342 0.53344 0.30269 0.24008 0.39066 0.54244 0.022761 -0.078918 0.46176 -0.11548 -0.069968 -0.044699 0.33449 0.32699 -0.036498 -0.049212 0.20137 -0.0032173 0.071358 -0.15548 0.11788 0.20452 0.55751 -0.12009 0.049637 -0.14136 0.31233 0.1747 0.51897 -0.19501 0.88392 0.26829 0.24266 0.14733 0.5875 -0.17472 0.6045 -0.13607 -0.14487 -0.071073 -0.24336 0.11528 -0.43276 -0.14071 0.21387 -0.050583 -0.38618 -0.2399 0.58009 0.094321 0.52855 -0.30298 0.42033 0.30249 -0.44957 -0.058919 0.178 0.095363 0.23985 0.20902 0.16918 -0.08419 -0.27365 0.061322 -0.01654 0.24543 -0.58867 0.23182 -2.3326 -0.087589 -0.2288 0.0077303 -0.41643 -0.21481 0.064854 0.068633 -0.31286 -0.32967 -0.17386 -0.12007 0.071425 -0.15924 0.015933 -0.11437 0.091929 0.49588 0.10782 1.2383 0.092258 -0.062959 0.52261 0.21236 -0.14329 -0.36704 0.16772 0.3855 0.24723 -0.154 -0.299 0.1116 -0.028684 -0.33027 -0.80579 -0.018895 -0.28854 0.13967 0.39771 -0.20833 0.6797 -0.31154 0.015104 1.1929 -0.31948 0.24917 0.13541 -0.45007 0.21788 -0.52557 -0.23873 0.052566 0.83873 0.13718 0.23875 0.04251 0.1063 -0.60688 0.20558 -0.16749 -0.12708 0.27571 -0.017674 0.37013 0.33853 -0.070674 -0.43635 -0.34751 0.14655 0.1236 -0.05836 -0.11622 0.23905 -0.4158 -0.03462 0.26341 -0.50219 -0.19947 -0.082167 0.1103 -0.49587 -0.38997 -0.22133 0.15698 0.18199 0.4413 -0.68596 -0.26092 0.65925 -0.023782 -0.42444 -0.037191 0.57961 -0.023439 0.13145 -0.058516 0.096207 -0.25757 0.28841 0.075807 -0.033018 -0.20021 0.0072501 -0.18258 -0.61713 -0.10952 -0.39994 0.01351 -0.34233 -0.37414 0.42798 -0.37536 0.2995 0.047134 0.15932 0.16054 0.29964 -0.35569 0.10468 -0.30481 -0.0025742 -0.064545 0.14988 0.22132 0.21577 -0.0056094 0.24346 -0.28165 -2.8176 -0.094875 -0.049612 0.037161 0.21134 -0.3944 -0.017576 0.17725 -0.15426 -0.12491 -0.40352 0.2535 -0.06759 -0.61073 -0.054121 0.15911 0.23654 -0.46245 -0.66967 0.63524 0.24677 0.16187 -0.22501 0.49579 0.15617 0.27238 -0.024477 -0.10734 0.046617 0.084008 0.76346 -0.18311 0.21051 0.50988 -0.35102 -0.18564 0.33036 0.026656 -0.20982 -0.039456 0.23817 0.081102 -0.091239 -0.20508 0.061319 -0.26415 -0.11857 0.092698 -0.62053 -0.088305 -0.12074 -0.11995 0.40481 0.11734 0.25642 0.047646 0.60107 0.061302 -0.28699 0.16682 0.06505 -0.028873 -0.053067 0.20032 -0.4908 -0.03726 -0.12476 0.00026199 -0.19995 -0.24424 0.81581 0.35334 -0.099906 -0.046081 0.14798 0.42148
find -0.1039 -0.13114 -0.18 -0.17396 -0.26448 0.17129 -3.794 -0.30453 -0.055096 -0.46042 -0.29508 -0.2125 -0.18103 0.41432 -0.11664 0.515 -0.23372 -0.087826 0.33051 -0.32172 -0.27609 0.15374 -0.11115 -0.012466 0.22279 -0.13529 0.070758 0.35075 -0.16707 -0.48187 -0.37547 0.054961 0.78499 -0.16326 0.0027786 0.08082 -0.28193 -0.14925 -0.088304 -0.11593 0.032741 -0.085368 -0.21532 -0.19745 0.060503 0.1306 -0.23555 -0.047774 0.60259 -0.19951 0.08981 -0.08744 -0.30389 -0.40909 0.061505 -0.044694 0.3152 0.075649 -0.46658 0.12035 0.30615 -0.47628 0.1954 -0.35662 -0.12458 0.35803 -0.18791 0.071753 -0.076964 -0.4001 0.053061 0.2492 -0.42104 -0.07508 -0.045229 -0.18934 0.43997 0.15103 0.14421 -0.49358 0.22159 -0.26107 -0.27059 0.068121 -0.1436 -0.13002 -0.032809 -0.34769 0.39706 0.038307 -0.2078 0.051636 0.086029 0.31418 0.14627 -0.89859 -2.4444 -0.16045 0.08986 -0.1203 0.2228 -0.087677 0.30646 -0.27147 0.30013 0.2618 -0.24062 -0.55097 0.033274 -0.32194 -0.29731 -0.074135 -0.11372 0.08092 -0.38115 0.32633 0.2793 0.35056 0.080909 -0.050695 0.13509 0.10438 -0.0195 -0.16552 0.36139 -0.19967 -0.031806 -0.052826 0.20024 0.11068 -0.32199 0.083118 -0.21281 0.03968 0.45924 -0.36149 0.48872 -0.14771 -0.25214 1.1026 0.013348 0.45129 -0.33092 -0.042318 -0.044782 -0.014524 -0.458 -0.24998 -0.055831 0.13901 -0.08977 -0.2464 0.083831 0.14011 0.24897 -0.25441 -0.20201 -0.042118 -0.28877 -0.34034 -0.051563 -0.14361 -0.23316 0.037674 -0.24505 0.44972 -0.034131 -0.076228 0.19691 0.43037 -0.13063 0.028612 -0.29731 -0.066114 -0.53417 0.27552 0.10936 0.14028 0.41407 -0.17655 0.27534 0.11638 -0.42298 -0.50291 -0.21394 -0.13093 0.38886 -0.059024 0.29698 -0.0035231 -0.1322 -0.23216 0.099545 -0.33886 0.23012 -0.37632 0.33506 -0.58113 0.38444 -0.25776 0.1476 -0.0084946 -0.47596 0.37406 -0.0027489 0.36301 0.025834 0.0096801 0.55409 0.088381 0.28553 -0.13448 -0.070615 -0.13554 -0.095303 -0.36211 -0.26665 -0.063765 0.4902 -0.03321 -0.20849 -0.2698 -0.43232 -0.14735 -2.698 -0.046174 0.35319 -0.099725 0.035852 0.16837 0.23802 -0.075232 0.027181 0.48785 0.16897 0.20322 0.079545 -0.39714 -0.10297 -0.23428 0.2617 -0.025745 -0.4159 0.11234 -0.1418 -0.11434 -0.1123 0.25228 -0.29494 0.12907 0.084928 -0.016875 -0.07687 -0.11967 0.069045 -0.5807 -0.042979 0.15647 0.1195 0.24685 0.036885 0.05659 0.038121 -0.3513 -0.023308 0.25601 -0.25457 0.08698 0.43704 0.56257 -0.23028 -0.07151 0.16785 -0.046106 -0.090853 -0.42959 0.034968 0.24537 0.041004 -0.12991 0.14444 0.18923 0.088662 0.067737 0.049456 0.75663 -0.30243 0.067444 0.23701 -0.27323 0.20209 0.12264 0.06136 -0.096317 -0.20911 -0.095412 -0.020792 -0.28778 0.35066 -0.14596
world -0.029402 -0.10822 0.077061 -0.31462 -0.32337 0.32454 -3.2569 -0.2992 0.37292 -0.12671 0.020543 -0.14403 0.40312 0.13214 0.71791 0.099757 -0.17784 -0.83389 -0.2036 -0.24437 0.2195 0.11469 -0.20128 -0.31146 0.029079 -0.24215 -0.014116 0.108 -0.15382 0.0019425 -0.43548 0.56219 0.14587 -0.25982 0.19049 0.16521 0.31294 -0.038657 -0.0044973 -0.23381 -0.3886 0.30105 0.18995 -0.21334 -0.55993 0.45717 -0.10682 -0.11666 -0.80175 -0.11358 0.73789 -0.24494 0.21086 0.10744 -0.33173 -0.22084 -0.58816 0.15984 0.010694 0.030706 0.34561 0.3045 -0.10631 -0.30902 0.052829 0.29199 0.17414 -0.11939 -0.18958 0.40242 -0.6345 0.64113 0.29272 0.23413 -0.11821 -0.15601 -0.17645 -0.10726 0.32335 -0.31405 0.011943 -1.057 -0.068785 -0.20803 -0.12024 0.24179 0.31971 -0.19193 -0.39939 0.59032 0.0090532 -0.73494 -0.10771 0.31109 0.042563 -0.038423 -3.0346 0.55467 0.39542 -0.71671 -0.13134 0.25354 0.26626 0.25575 0.18793 -0.098591 0.32619 -0.39803 0.038996 -0.32784 -0.077881 -0.29589 -0.13462 -0.26782 -0.050362 0.30303 0.26131 -0.037628 0.037253 -0.24733 0.094264 0.12692 -0.28919 -0.47707 -0.10806 0.12864 -0.075527 -0.010165 -0.012583 -0.57021 -0.34273 -0.48062 0.22226 -0.16301 0.60809 -0.28028 0.20706 0.21326 0.29628 0.5217 -0.3175 -0.31261 0.095252 -0.21708 -0.052377 -0.47021 0.030809 -0.087399 0.46683 -0.12824 -0.40395 0.39133 0.63557 -0.19222 0.074906 0.18824 -0.19304 -0.0030837 -0.20685 0.39233 0.11499 0.034766 0.23977 -0.4328 -0.34063 0.037956 -0.22356 -0.045125 0.52786 -0.3295 -0.11264 0.097248 0.48739 -0.2149 -0.1599 -0.079422 0.017843 0.2013 -0.0399 0.083454 -0.066444 0.042203 0.00037272 -5.5115e-05 0.64981 -0.40014 -0.066394 -0.32653 0.30924 0.12827 0.31236 -0.072232 0.16349 0.1583 0.51421 -0.18802 0.36269 0.11266 0.11797 -0.21476 -0.77362 -0.11453 -0.42133 0.097524 0.11699 -0.12969 -0.36274 0.50409 -0.06787 0.58521 0.276 -0.38375 -0.52865 0.33521 -0.43603 -0.15569 -0.32225 -0.38325 -0.24349 -0.083919 -0.20463 0.22564 -0.025654 0.54923 -2.9152 -0.3067 -0.36424 -0.19979 0.016982 -0.32805 0.23027 0.16081 0.040964 0.016777 -0.49055 0.033512 0.35569 -0.10331 -0.28803 0.33126 0.1398 0.49297 0.37603 0.56331 0.58553 -0.27473 0.057481 -0.35132 0.52466 0.24738 0.19401 0.083494 -0.26728 0.444 -0.037006 -0.26431 0.30924 -0.14945 0.28216 0.54336 0.14821 -0.082064 -0.30357 -0.093486 -0.34243 -0.088126 -0.38494 0.11496 -0.08567 0.38238 -0.30754 -0.32697 0.2953 0.29028 0.12493 0.19821 0.1547 0.10409 -0.13426 0.081264 0.12936 -0.077744 -0.11958 0.15209 -0.067516 -0.34473 -0.25854 -0.035619 -0.19147 -0.59346 0.35135 -0.1368 0.14472 -0.40527 -0.017718 -0.15337 0.64859 0.2604 0.39077 0.12595
information -0.11311 -0.34493 -0.22735 0.19948 0.82422 -0.24046 -3.4986 0.43982 0.35135 0.25003 -0.36296 0.29435 -0.36903 0.35608 0.21681 -0.16412 -0.21784 0.50082 0.3748 0.079891 -0.15575 0.090578 0.37506 -0.12095 -0.022457 -0.033075 0.30595 -0.20754 -0.20965 -0.73003 0.014229 -0.27956 0.38918 -0.31121 0.22246 -0.097704 -0.47419 -0.66913 0.57932 0.21717 -0.26253 0.02632 -0.24168 -0.29776 0.47825 0.19638 0.089304 0.62434 0.044108 -0.60871 -0.57034 0.47329 -0.18799 -0.43301 -0.48175 -0.1985 0.48611 0.1036 -0.6656 -0.039384 -0.01523 0.29187 0.19146 0.098778 0.10224 0.66016 0.17707 -0.23371 -0.42223 0.026846 -0.12922 -0.11596 0.33153 -0.087688 -0.021581 -0.52171 -0.18169 0.34252 0.19821 -0.044004 -0.11348 -1.0518 0.0078106 0.18036 0.16681 -0.13981 0.20632 -0.32301 -0.06639 -0.38992 -0.073082 -0.13915 0.082125 -0.14612 0.35374 -0.81391 -3.3896 0.12589 -0.36019 -0.29704 -0.045817 0.3829 -0.15786 -0.10954 -0.072726 -0.28067 0.2462 -0.52148 -0.10471 -0.074362 0.41431 -0.36029 -0.17717 0.24746 -0.26614 -0.37041 0.16356 0.61919 -0.064738 -0.67062 0.30687 -0.44283 -0.062386 -0.28499 0.18726 -0.00062986 0.057523 -0.15207 -0.028837 0.33918 -0.16613 -0.43778 -0.26998 0.14759 0.16333 -0.15306 -0.18972 0.15252 0.063061 0.6226 0.35595 -0.40076 -0.14804 -0.091429 0.024599 -0.13275 -0.15043 -0.31748 0.016293 0.261 -0.36282 -0.23559 0.40802 0.30489 0.028246 -0.77322 -0.26644 -0.064591 0.21856 -0.39689 0.10897 -0.3337 -0.2127 0.29944 0.029974 0.013034 -0.28395 0.46839 0.081118 0.2339 -0.16481 -0.14215 0.21284 -0.13421 -0.28927 0.38124 -0.073197 -0.12353 0.3212 0.19408 -0.24402 0.093559 -0.37047 0.20022 -0.23452 -0.24187 0.2794 0.14239 -0.0063161 -0.22834 -0.57263 -0.029817 0.23659 -0.12059 0.12575 -0.2929 0.15461 -0.54141 0.036603 -0.1283 0.18998 0.20067 -0.33924 0.52808 -0.079089 -0.12809 -0.135 0.072257 0.057875 -0.3316 -0.0683 0.14088 -0.2857 -0.020763 -0.28691 0.18143 0.28315 -0.056867 -0.11169 0.03742 -0.10547 0.080372 0.22995 -0.31526 -2.429 0.37404 0.04202 -0.0088518 0.042701 0.21853 0.5021 -0.10176 0.12775 -0.084697 -0.0090692 0.036472 0.1179 0.069537 -0.24901 0.056775 0.29224 -0.02843 -0.12067 -1.0389 -0.034538 -0.2029 -0.21309 -0.21939 0.09266 -0.46035 0.066144 0.24432 0.28838 -0.23562 -0.35422 0.036265 -0.0055318 -0.17792 0.12569 -0.54687 -0.13763 0.12159 -0.61103 -0.033604 0.083392 0.19732 -0.2791 -0.058262 0.13399 0.32488 0.16761 -0.011441 -0.0097681 -0.036805 0.073891 -0.21139 0.024892 0.012006 0.13457 0.0085265 -0.913 -0.047224 -0.060022 -0.052114 -0.31849 -0.025647 -0.94312 0.14848 0.20775 -0.41966 -0.12952 0.29156 -0.045629 0.24258 -0.26748 -0.066976 -0.21974 -0.174 -0.11343 0.22731
views -0.29513 -0.14492 0.011444 -0.14147 0.40601 0.24454 -1.6073 0.0083782 0.21556 -0.94855 0.32559 0.80231 -0.4208 0.19278 0.41652 0.84501 -0.40596 -0.54556 -0.51556 0.23952 0.89904 0.064259 -0.0080061 -0.11664 0.59367 -0.44721 -0.033157 -0.059034 -0.58151 1.1057 -0.13312 0.32977 -0.7429 0.76381 -0.047145 -0.040511 0.020651 -0.51299 0.054809 -0.15772 0.46857 -0.29957 0.50639 0.31041 0.23458 0.13671 -0.057782 0.51483 -0.725 -0.11301 0.78038 -0.36101 0.2168 0.50924 -0.019999 0.17028 0.079727 -0.83781 -0.25698 -0.39201 0.47461 0.20378 0.86105 0.14835 -0.3912 -0.441 -0.21634 0.038735 -0.17778 0.25609 0.050452 0.086365 0.08435 -0.14954 0.058813 -0.33883 0.2471 0.89151 0.56132 0.44979 0.095513 0.038031 0.54144 -0.45226 -0.38633 -0.1084 0.18249 0.023896 0.74743 0.25748 -0.028472 -0.26089 -0.097046 0.38143 0.31475 0.62495 -1.928 0.025002 1.2034 0.28293 -0.42011 0.73643 -0.52149 0.50904 0.42965 -0.10852 -0.015825 -0.35801 -0.18689 0.66066 -0.74498 -0.93489 0.29759 0.20941 -0.53302 0.22495 0.27932 -0.55271 0.51867 -0.18143 -0.084549 -0.080104 0.32786 0.54612 -0.2992 0.46182 0.97047 0.027417 -0.26694 -0.65804 0.10518 0.24086 -0.082755 0.20527 0.10885 -0.15265 0.048946 -0.251 -0.189 1.3464 0.22952 0.086808 0.15612 -0.48268 -0.024941 -0.072244 0.067613 0.41483 0.49262 -0.077038 0.62497 -0.51958 0.39023 0.74563 -0.039636 0.25847 -0.21918 -0.12733 -0.15244 0.008794 0.09956 -0.43788 0.10975 -0.63479 0.64617 0.56465 -0.77204 0.28364 0.62357 0.077621 -0.13653 -1.1179 -0.1373 0.31455 0.63 -0.20014 -0.1968 -0.0034104 0.10792 0.032221 0.25089 -0.31764 0.21566 0.78386 0.31739 0.41489 -0.041884 -0.046942 -0.13787 -0.13074 -0.43448 -0.10481 -0.083729 -0.25089 -0.46841 -0.051986 -0.35801 -0.36188 0.40481 -0.25789 -0.24842 -0.17152 0.64209 -0.06172 0.24903 -0.061182 -0.20388 0.78077 -0.30384 0.35966 -0.027805 -0.44436 0.28589 -0.48175 -0.63433 -0.35091 0.013214 -0.46103 0.10333 0.11811 -0.029423 0.093443 -0.47379 0.4753 -3.5766 -0.1557 -0.0094946 -0.10233 0.21999 -0.76112 0.28194 0.42002 0.072805 -0.45091 0.45333 0.23426 0.19115 -0.44821 -0.10596 -0.32805 0.0063579 -0.28792 0.47547 -0.0059023 -0.47297 0.27981 0.6092 -0.29757 0.13956 0.39074 -0.12041 -0.2572 -0.55818 -0.27831 -0.014436 -0.00065686 0.051704 -0.63172 -0.15104 0.016668 -0.26779 0.11239 -1.0203 -0.32797 0.087907 -1.0471 0.2338 -0.70072 0.001113 0.32912 0.42563 0.31439 -0.70552 0.37995 0.0060588 0.16355 -0.046531 -0.20282 0.63637 0.65657 -0.18445 0.082859 -0.7535 -0.54129 0.16086 -0.32117 0.39895 0.034432 0.0025851 0.35061 0.39878 0.088505 -0.095756 -0.33819 0.8243 0.27612 -0.35535 0.25532 -0.076692 0.35802
made -0.10137 -0.035291 0.16784 -0.24975 0.10347 0.091109 -3.4444 -0.044295 -0.010408 -0.83929 -0.027656 0.021928 0.020912 -0.24614 -0.10219 -0.14451 -0.53506 -0.23475 0.077637 -0.051364 -0.0046826 0.12951 0.066693 0.086548 0.058505 0.07286 0.0029614 0.28859 -0.0026457 -0.05729 -0.15683 0.13118 -0.19777 0.07437 0.17865 -0.24147 0.23504 0.030069 0.38804 -0.022248 -0.21425 0.25637 -0.24254 0.16512 -0.40358 0.22999 0.32019 -0.4623 -0.447 -0.034634 0.11821 -0.27633 -0.040556 0.11237 -0.13491 -0.060741 -0.54318 0.021685 0.58849 0.019083 0.40485 0.020645 0.16705 -0.074471 0.13818 0.23842 -0.018623 0.30355 0.12942 -0.27434 -0.58307 0.12044 -0.037252 0.32419 -0.082688 -0.27811 -0.24682 0.27522 -0.36989 0.12838 0.064825 -0.93273 -0.016027 -0.18525 0.1491 -0.29382 -0.11561 -0.022479 -0.010869 -0.15401 0.14605 -0.012418 -0.24816 -0.067678 -0.085828 -0.58637 -2.3868 -0.19943 -0.091018 -0.028246 0.11533 -0.1686 0.48879 -0.13379 0.087897 0.08574 0.013265 -0.10217 0.050061 0.055862 -0.16188 -0.11905 0.07817 -0.039945 -0.22519 0.50965 0.53699 0.16149 0.1563 0.20997 0.17492 -0.29263 -0.30403 -0.14039 -0.35768 -0.23331 0.23381 -0.07475 -0.31859 0.30628 0.11563 0.34718 -0.28792 -0.043871 -0.098283 0.41578 -0.32488 -0.16475 0.53338 0.57286 0.12537 -0.046601 -0.09463 -0.28486 0.15601 -0.19368 0.18039 -0.10058 0.52622 -0.27167 -0.13916 0.25372 -0.1919 0.055027 0.10777 -0.41129 -0.16378 -0.21754 -0.077935 -0.10807 -0.24439 -0.29408 0.17795 0.037816 -0.28622 0.057492 0.089211 0.32771 0.27165 -0.14489 -0.24875 -0.021502 -0.22781 0.26579 -0.13905 0.26704 -0.26143 -0.082478 0.020053 -0.23876 0.19225 -0.021948 -0.14256 0.20462 -0.14191 0.020539 -0.38681 0.32713 -0.032682 0.41409 -0.1133 0.0082393 -0.13484 -0.13358 -0.14576 0.39481 0.36093 0.10907 0.27881 -0.32625 0.75412 -0.24151 0.056459 -0.097918 0.24531 0.2757 0.1397 -0.33128 0.41118 -0.38197 0.18227 0.66999 0.067507 -0.19988 0.14343 0.29466 -0.044245 -0.06618 -0.54814 -0.1725 -0.072242 0.34998 0.21863 0.1481 -2.8216 0.13726 0.10235 0.041649 0.5124 -0.4502 0.13291 -0.18888 0.4296 -0.23938 0.12478 0.21391 -0.26587 -0.23721 -0.15707 0.12185 -0.55752 -0.0017943 -0.092968 0.4245 0.16548 0.038189 -0.4769 -0.17718 -0.14626 0.3035 0.38865 -0.23626 -0.011004 0.21686 -0.20051 0.13555 0.22503 -0.0074788 0.17783 -0.034107 0.18638 -0.010824 -0.1194 -0.14498 0.0094939 -0.0846 0.045706 -0.18108 -0.33158 -0.3151 0.0048228 0.18965 -0.34485 0.36046 0.10865 0.032742 0.30972 -0.020207 0.39827 0.026188 1.1288 0.39296 -0.041886 -0.019669 -0.10545 -0.19544 0.023799 -0.049427 -0.24228 0.31958 -0.42948 -0.11214 -0.23049 -0.27037 0.35964 0.09587 0.20655 -0.029507 0.18381 -0.12658
business 0.59759 0.72346 -0.33732 0.217 -0.093627 -0.029127 -3.3168 -0.020163 0.26739 0.11161 -0.39531 0.32781 0.36143 -0.19116 0.36643 0.2031 0.25813 -0.11381 -0.3705 0.26171 0.20247 -0.2816 -0.37461 0.46797 -0.61461 -0.089876 -0.094364 -0.30277 -0.047508 -0.31077 -0.90363 -0.36511 -0.096035 -0.86972 -0.28548 0.45028 -0.11554 -0.16853 -0.55308 -0.23827 -0.1373 -0.67241 0.10256 -0.16447 -0.0005267 0.15988 0.26979 0.13673 -0.3752 0.10631 0.08544 0.011273 0.060846 0.15652 -0.1745 0.48155 -0.10295 -0.12177 -0.55852 0.37302 -0.32621 -0.1972 0.19535 -0.39773 0.26381 -0.14732 0.31671 0.0012231 -0.44087 -0.56904 0.61154 0.1438 -0.44513 -0.22028 0.20986 0.0087057 -0.098505 0.36027 -0.11381 0.27682 0.4261 -1.2468 -0.18216 0.25665 0.4086 0.12446 0.10094 0.017966 0.35657 0.25952 0.23563 -0.072922 0.020766 0.026445 -0.2476 -1.3839 -3.5122 0.28336 0.28443 0.16597 -0.050646 0.33154 0.0034865 0.28762 0.18605 -0.1677 0.015752 0.58841 0.49393 -0.19048 0.32131 -0.075936 0.18217 -0.17682 0.16072 -0.5073 0.30953 0.20121 0.42851 0.058535 0.051233 -0.17078 -0.029113 -0.19627 -0.05916 0.21158 0.12152 0.1394 -0.068431 0.064623 -0.13941 -0.042761 0.046123 0.12435 -0.05205 -0.12865 0.46169 -0.17905 0.18985 0.85724 -0.29995 -0.29853 -0.077175 0.1052 -0.26362 0.50419 0.083411 -0.13681 -0.15577 -0.26889 0.34789 0.3559 -0.3202 -0.053742 0.20969 -0.56326 -0.06073 -0.14806 -0.24649 -0.37026 0.47735 0.16741 -0.52521 -0.48349 -0.036908 -0.30096 0.22171 0.22267 0.16833 -0.31532 0.10685 0.41273 0.31724 -0.4122 0.067549 -0.30763 -0.1081 0.44987 0.21452 0.21228 -0.19507 0.031692 -0.17606 -0.10251 -0.33979 0.17053 0.19 -0.0080032 0.3622 -0.15515 -0.26956 0.16978 0.18135 0.19053 0.010242 0.070646 -0.1783 0.14207 -0.37361 0.38992 0.03382 0.063292 0.41858 -0.028145 0.1567 -0.4896 0.32031 0.42232 0.037538 0.58933 -0.39713 -0.066377 0.50827 0.33742 -0.46454 0.84739 0.18355 -0.10363 -0.31777 0.077217 0.018863 -0.3085 0.33159 -0.031323 -2.4484 0.3063 -0.17969 0.25645 -0.33299 0.35879 -0.23289 0.068622 0.11102 -0.4799 -0.006931 0.30693 0.77978 0.16548 0.27 -0.44665 0.30157 0.18131 0.014455 -0.039061 0.15008 0.36006 -0.30073 -0.29874 0.38288 -0.20774 0.14109 0.20685 -0.27951 -0.041956 -0.78133 -0.34368 0.68467 0.062118 0.17844 -0.33475 0.21315 0.020814 0.13227 -0.24925 0.56297 0.447 0.12857 -0.32729 -0.00095479 -0.20319 0.028739 0.17302 -0.56885 -0.21723 0.39062 0.39161 0.0085662 -0.31263 -0.54128 -0.24025 -0.66042 0.3198 -0.56684 0.24176 -0.38435 -0.092271 -0.38118 0.22954 0.019631 -0.37517 0.36985 0.063214 0.041522 -0.11936 -0.11432 0.32771 -0.3358 0.1353 0.75866 -0.15435
life 0.025665 0.32846 -0.17849 0.4137 -0.60211 0.049712 -3.8493 0.026086 -0.25262 -0.55858 0.33488 -0.27396 0.21622 0.15055 -0.0064357 0.016283 0.21084 -0.0095389 -0.28225 0.53181 0.358 0.090783 0.088609 0.017101 -0.042885 0.26627 0.08996 -0.016171 -0.21802 0.16837 -0.095285 -0.028319 0.2422 -0.041278 0.0084918 0.14287 0.51943 -0.066299 -0.080347 -0.33322 -0.043467 -0.069938 -0.056843 -0.26838 -0.14898 0.34294 0.18573 -0.2224 -0.72903 -0.60058 0.097974 -0.33181 0.22258 0.16095 -0.11004 0.20152 -0.11122 -0.22661 -0.10663 -0.088083 0.1118 -0.16889 0.05294 -0.40677 -0.21638 -0.30908 0.24614 -0.25858 -0.038128 0.64011 -0.14553 0.21011 0.090515 -0.059287 -0.27853 0.035395 0.29286 -0.40407 0.58887 -0.61631 -0.039485 -1.0032 0.19762 0.52339 0.050923 -0.0012573 0.20774 0.023611 0.28509 0.08525 0.14122 -0.076217 0.25736 0.16763 -0.22843 0.15699 -2.538 0.15157 0.092128 0.28653 -0.11692 0.14645 0.21957 -0.5288 -0.21053 -0.61016 0.16453 -0.15402 0.29762 0.17112 0.074613 -0.017796 0.23203 -0.057359 0.077211 0.78331 -0.18968 0.54583 0.42883 -0.12952 -0.097667 -0.00098646 -0.14815 -0.83215 0.13708 -0.088078 0.22674 -0.2451 -0.22766 -0.7795 -0.36432 -0.111 0.2053 -0.022033 -0.20568 0.032935 0.41623 -0.25968 -0.26233 0.41749 -0.049495 -0.024842 0.50939 -0.20762 0.47766 0.2823 -0.21188 0.18499 0.51863 0.026165 -0.12071 0.2779 0.29141 -0.50672 -0.012941 0.44184 -0.24072 0.058946 -0.042574 0.24702 0.035497 -0.038872 -0.60281 -0.37882 0.20756 0.17638 -0.35355 -0.029231 0.23483 -0.19096 0.10421 0.44718 -0.15205 -0.18002 -0.74223 -0.42074 0.23932 0.069118 -0.093196 -0.057983 -0.36548 -0.068992 -0.098885 0.15649 0.14398 -0.30645 0.19041 0.20015 0.31136 0.063273 -0.42989 0.32523 0.23665 0.019369 -0.26829 -0.41979 -0.013821 0.14093 -0.19671 -0.10278 -0.31819 0.64341 -0.18313 0.26715 -0.098165 -0.34074 0.58801 -0.14904 -0.062118 0.17433 -0.32781 -0.20965 0.055649 -0.34958 0.059274 0.0065737 0.27465 -0.077475 -0.16772 0.29092 -0.017221 0.41771 0.14354 -0.042815 -2.6436 -0.063878 -0.02796 0.16672 -0.044504 -0.3595 0.26198 0.38102 -0.28834 0.34538 -0.20959 0.45839 0.30544 -0.33799 0.091979 0.3062 0.082463 0.16822 -0.87529 0.5697 0.52198 0.21734 -0.40121 -0.31124 0.072527 0.60121 0.44891 0.44264 -0.12583 0.14244 -0.14126 0.10873 -0.05193 0.008971 -0.17859 0.40411 0.39092 -0.22688 -0.20935 0.39768 0.089455 -0.039301 -0.3404 0.13427 0.28153 -0.10008 -0.50917 -0.18091 -0.57276 0.018065 -0.18771 0.069456 -0.32883 0.175 -0.14216 0.12686 0.55655 0.23825 -0.25486 -0.035363 -0.024853 0.066886 0.13676 0.4412 -0.43156 -0.2081 0.17935 -0.1984 -0.02577 -0.45039 0.57047 0.32876 -0.23341 0.08739 0.19495 0.45136
video -0.46529 0.1063 -0.29215 0.048039 -0.020434 -0.30402 -2.776 0.46129 0.25512 -0.90368 0.44284 0.10216 0.17662 0.19249 -0.019225 -0.18168 -0.32853 -0.25787 0.30616 -0.026958 0.35282 0.22279 0.20399 -0.50764 -0.069552 -0.31651 0.1062 0.011094 -0.3175 0.41272 0.16903 0.63214 -0.48703 0.57402 -0.080127 0.14033 0.64271 0.14669 0.32055 0.49279 -0.24098 0.079853 -0.58529 0.13804 -0.036686 0.21534 -0.36987 0.026225 -0.23901 -0.052543 -0.15919 0.12828 -0.0075131 0.30548 -0.26251 0.37348 -0.4452 -0.4807 0.19628 -0.12997 0.12301 0.54135 0.74702 -0.19735 -0.040176 0.27307 -0.028133 -0.66964 0.08579 -0.25304 0.66792 0.46074 0.26301 0.044858 0.099101 -0.40522 -0.12869 0.31219 0.010697 -0.078818 0.26469 -0.55677 0.25541 0.096897 0.21476 -0.0013441 0.45941 -0.020495 0.65471 -0.2332 0.2223 0.25351 -0.32412 0.0079208 -0.39058 -0.080509 -2.5384 0.38049 0.48665 -0.52619 -0.011112 0.38719 0.035544 -0.47013 -0.036178 0.47567 -0.49204 0.20065 0.30237 0.029941 0.090353 0.014897 -0.17157 -0.021592 -0.27599 -0.15825 0.668 -0.35067 0.18951 0.13167 -0.5019 0.14687 0.61799 1.2268 0.60555 -0.04737 0.37426 0.10685 0.37032 -0.59827 -0.26311 -0.35621 -0.26187 0.33197 -0.27636 0.32901 -0.031796 0.24099 -0.0052752 1.8095 -0.0068836 -0.45749 -0.1452 -0.029559 -0.23773 -0.086878 -0.27503 -0.087787 -0.13696 -0.37913 0.23852 -0.54778 0.054051 -0.12457 0.34142 -0.44776 -0.38057 0.5203 0.32431 -0.50079 0.13687 -0.22303 -0.090751 0.19539 0.058986 0.41222 -0.82705 0.26562 -0.11837 -0.10911 0.26806 -0.1097 0.62225 -0.12996 0.4732 -0.17943 -0.18521 0.62775 -0.13309 0.093284 0.29068 0.081946 -0.051471 -0.10885 0.79358 -0.090786 0.52375 0.18468 -0.15663 0.63968 -0.093363 0.19733 0.1124 -0.19609 -0.55362 -0.46605 -0.12863 -0.042757 0.62366 0.11253 -0.72785 -0.43187 0.014868 0.62365 0.030046 0.26468 -0.32579 -0.0047236 0.49646 -0.12757 -0.35671 0.13772 -0.6378 -0.20369 0.22475 0.55578 -0.12685 -0.56437 -0.43474 0.061906 -0.52538 -0.018973 -0.82562 0.35749 -3.1456 -0.41979 0.2071 0.14542 -0.14356 -0.19727 0.17542 0.076548 0.42572 -0.1752 -0.17348 0.25711 -0.5997 -0.45449 0.052369 0.029057 0.066046 -0.34124 -0.24131 0.52816 0.039154 0.056219 0.35096 0.2161 0.18531 -0.075837 0.069118 -0.012203 -0.22752 0.19878 0.31713 0.08121 -0.32687 -0.61577 -0.31846 -0.37617 -0.43595 0.033089 -0.25062 0.32176 0.56401 -0.65385 -0.20325 0.13125 -0.64944 -0.29933 0.16063 0.17055 0.0074199 0.16346 0.13964 -0.53986 0.07916 -0.31254 0.25761 -0.03175 -0.55768 -0.72142 -0.40457 -0.54276 -0.19242 -0.7796 0.039548 -0.099413 -0.15113 0.32152 -0.29587 -0.29047 0.42891 0.028527 0.11814 -0.26187 -0.079948 0.19393 -0.25652 0.26225
part 0.047919 0.065519 0.020653 0.11016 0.13667 -0.14507 -3.106 0.35993 -0.44819 -0.17113 0.10242 0.33836 -0.047919 -0.18165 0.29311 -0.10951 0.14949 -0.15077 0.37992 0.59047 0.43869 0.061853 0.51471 0.0022272 0.26374 -0.6763 -0.013228 0.02652 0.075175 0.12016 -0.55067 0.18215 0.067403 -0.078116 -0.16475 0.26228 -0.29127 -0.2886 0.089402 -0.15679 0.34529 -0.13776 -0.18892 0.16644 0.27012 0.17541 -0.11734 -0.51478 -0.66415 -0.12437 0.068613 0.25075 -0.033501 0.45108 -0.35658 -0.098826 -0.053867 0.2557 0.25105 0.067109 0.1289 -0.47181 0.11115 -0.31252 -0.18065 0.043076 0.37032 0.24741 0.10085 0.58807 -0.23717 -0.058708 -0.063788 0.042126 -0.2716 -0.54315 -0.30215 -0.27094 0.25545 0.039262 -0.16533 -1.0516 0.10124 0.18741 0.23211 -0.04928 0.40392 -0.020799 0.15992 -0.012817 -0.25221 -0.1707 -0.31149 0.53737 0.13409 0.22618 -2.6092 -0.10118 0.06274 0.34158 0.1624 -0.32063 -0.2271 0.22493 0.18996 -0.31925 0.16731 0.17055 -0.58873 0.31557 0.072177 0.46485 -0.24762 -0.10386 -0.32552 0.37315 0.16205 -0.28793 0.47922 0.2662 0.20385 0.17465 0.28137 -0.093001 0.12405 -0.084084 -0.27705 -0.16279 -0.091707 -0.056984 0.15642 0.10352 0.3251 -0.08156 0.37852 -0.054073 -0.054524 0.11687 -0.33681 0.7591 0.05263 -0.098564 0.40965 -0.21962 -0.36021 -0.18392 -0.19774 -0.26641 0.44279 -0.10803 -0.15264 0.0068538 -0.043841 0.2688 -0.1601 0.024461 0.019023 -0.236 -0.081346 0.13538 0.069666 -0.50175 0.16793 0.31451 0.25946 -0.071869 -0.24794 -0.13225 0.30477 -0.32307 0.19035 0.0013357 0.20489 0.18884 0.42939 -0.057508 -0.0071427 0.2774 0.31116 -0.23143 0.51317 0.072459 -0.59583 0.23507 -0.053394 -0.16915 0.052554 0.038254 -0.15504 0.11506 -0.53911 0.12571 0.23629 -0.12368 -0.10341 0.2647 -0.183 0.029816 0.068396 -0.091765 0.21661 -0.15124 0.14744 0.56504 0.30197 -0.039885 0.033483 0.46546 0.3129 0.29716 -0.1328 -0.19075 -0.20875 -0.61012 -0.14064 0.16875 -0.24165 -0.34322 -0.035874 0.054695 0.0058928 0.11983 -0.61749 0.049388 -2.8269 0.082924 0.073824 0.14997 0.11337 -0.21453 0.15027 0.092463 0.14739 0.11576 0.09928 0.029098 0.13177 0.17398 -0.41801 0.10156 -0.33863 -0.015684 -0.052304 0.45963 0.1143 -0.035993 -0.1166 -0.54904 0.15055 0.19894 -0.047935 -0.10968 -0.12083 -0.03707 0.10108 0.25382 0.062648 0.1167 -0.1286 -0.14754 -0.1196 -0.18939 -0.12296 0.17624 0.33698 -0.29902 -0.14563 -0.23623 0.016119 0.062068 0.26726 -0.14408 0.15224 -0.25906 0.24761 0.14054 0.41825 -0.29201 0.16267 0.15774 0.78639 -0.094484 -0.23063 0.25678 0.063574 0.095491 0.44563 0.26552 -0.15605 -0.072691 -0.093354 -0.013741 -0.014505 0.093641 0.0114 0.20918 0.42855 -0.013623 0.32299 -0.013058
online -0.28788 0.14135 0.52539 -0.56917 0.68358 -0.10714 -3.1713 -0.1137 -0.29492 0.011441 -0.037688 -0.2119 0.43579 0.44307 -0.4314 0.85359 0.27377 0.50072 -0.039385 -0.2138 0.13278 -0.088989 -0.36018 0.10617 0.3422 -0.5115 0.28674 0.34299 -0.64283 -0.63398 -0.66289 0.421 0.73598 -0.38134 -0.4215 0.18394 -0.029607 -0.22749 -0.49919 0.33657 -0.55685 -0.49867 -0.12899 0.015299 0.33973 0.22338 -0.14237 0.031181 -0.42407 -0.14904 -0.11327 0.0029962 -0.38779 -0.71126 -1.1304 0.22703 -0.28044 0.1188 -0.53286 0.15613 -0.24729 0.69954 0.6231 -0.202 -0.12591 0.69534 0.23599 -0.087811 0.076918 -0.19717 0.39163 0.22645 -0.41226 0.15106 -0.16175 0.16449 -0.16592 -0.012956 -0.43136 -0.09643 0.22903 -0.64506 0.063848 0.28545 0.0061953 0.26004 0.69541 0.028726 0.0062233 -0.2786 0.4341 -0.21673 0.027754 -0.22692 0.042558 -0.84767 -3.3423 0.56444 -0.046902 -0.31904 0.0020785 0.066078 -0.060534 0.065286 -0.21625 -0.018009 0.051128 0.23521 -0.10377 0.26284 -0.18951 -0.15813 -0.078995 -0.3632 -0.23729 0.31971 0.54298 0.76133 0.21321 -0.20081 -0.15873 0.41934 -0.2436 0.57487 0.34371 0.49676 -0.39067 -0.067713 0.55104 0.0016276 -0.26394 0.43233 0.59356 -0.088716 0.35241 0.018695 0.74527 -0.022499 -0.18009 1.1899 0.32925 0.19443 0.087451 -0.32818 0.068074 0.097636 -0.15016 0.11059 0.11028 -0.57755 -0.010427 -0.53112 -0.12834 0.18625 0.31539 -0.37614 -0.54456 0.00012739 -0.4115 0.13753 -0.10736 0.25893 0.12231 -0.085449 -0.44687 -0.13831 0.019166 0.27566 0.61478 0.62698 0.10744 0.22577 0.082654 -0.37663 -0.39515 -0.01924 0.15494 -0.48889 0.12329 0.0074366 0.32102 1.1364e-05 -0.20664 0.11031 -0.37153 -0.020438 0.18105 0.16166 -0.25984 -0.24274 -0.69457 -0.37484 0.023749 -0.60067 0.46129 -0.54192 0.14479 -0.71013 -0.25491 0.14022 0.26346 0.50967 0.51669 0.45877 0.4364 -0.57037 0.075686 -0.56899 -0.42846 -0.12621 -0.4663 0.084756 0.15927 0.25284 0.17191 0.039831 -0.37475 -0.49071 -0.080774 0.66727 0.04925 0.44738 -0.30851 -0.14858 -2.7325 0.067416 0.021355 -0.0095779 0.1616 0.39944 -0.0068298 0.8024 0.36443 -0.14744 0.19624 0.098168 -0.20153 -0.35518 0.21815 0.19081 -0.28893 -0.62989 0.075591 0.60044 0.20243 -0.32267 -0.12168 0.054237 -0.19983 0.18584 0.2871 0.42664 0.27809 -0.0077301 0.61382 -0.74593 0.53219 -0.77412 0.36644 -0.15235 0.4607 0.040407 0.20864 -0.038357 -0.094925 -0.084778 -0.69724 0.34647 -0.13248 0.04666 0.2347 -0.78489 0.87131 0.1451 -0.27785 -0.23387 0.24307 0.35908 -0.27953 -0.1758 -1.4407 0.065085 -0.19236 -0.27735 -0.38063 0.029453 -0.086159 -0.17315 -0.15603 0.056301 0.34755 0.28506 0.30128 0.25318 -0.28707 -0.39309 -0.27348 0.10176 0.16586 -0.025526
high 0.40646 -0.50675 -0.5006 -0.61571 0.38904 -0.61009 -3.0855 0.39217 -0.51045 0.061376 0.23156 0.019113 0.42874 0.11928 -0.50568 -0.42166 -0.46327 -0.26052 -0.34682 -0.25618 -0.41367 -0.05826 0.41572 -0.088436 -0.073309 -0.34037 0.293 -0.074172 -0.42624 -0.11197 -0.065733 0.035058 -0.19895 -0.011815 -0.19117 0.40189 -0.014957 0.57079 -0.19393 -0.54694 -0.23793 0.29345 0.2239 -0.37053 -0.24279 0.16187 0.41518 -0.55838 0.035118 0.55201 -0.6302 0.60939 0.0021094 0.32341 0.066274 -0.026801 0.4832 -0.15129 -0.2191 0.2125 -0.046459 0.2752 -0.0232 0.33476 0.28805 0.26762 0.1103 -0.49672 0.19846 -0.21213 -0.011445 0.67128 0.21437 0.24234 -0.033981 -0.18296 0.2515 -0.33446 -0.2408 0.016438 0.35606 -0.03765 -0.22367 0.5896 -0.21633 -0.095 -0.065163 -0.29171 -0.24451 0.045642 0.30761 -0.44048 -0.2157 0.37629 -0.26795 0.58425 -2.8286 0.15804 0.52709 0.19056 0.23209 -0.25507 -0.12561 -0.13732 -0.0090322 0.36108 0.095146 -0.24539 0.060203 0.015586 -0.62075 -0.025852 0.58117 0.18459 0.11997 -0.50345 0.016484 0.6033 0.15645 0.40489 -0.50681 0.60687 -0.40938 -0.59562 0.025642 -0.020147 0.32905 -0.24429 0.25457 -0.23048 0.53016 0.70241 -0.055187 -0.26002 -0.05482 0.52866 0.10563 0.21303 0.23679 0.98903 0.41038 -0.3241 -0.38215 0.093808 -0.13102 0.14049 0.019959 -0.13179 0.06895 -0.2362 0.2459 0.064511 0.81698 -0.094889 -0.69557 -0.45314 0.20317 0.18759 -0.032539 -0.53412 0.025736 0.64991 -0.20004 0.11345 -0.084097 0.74673 0.41565 0.1708 0.45441 -0.034477 0.30026 0.19636 -0.30098 0.1185 0.35072 0.42877 0.45398 -0.22639 0.1912 -0.084203 0.13261 0.56701 0.50572 -0.21407 0.082897 0.34075 -0.40721 0.26821 -0.29917 0.10095 0.09062 -0.093392 -0.30292 0.012492 -0.06758 -0.67342 -0.41713 0.35351 0.16281 -0.42625 0.12227 -0.32699 0.69308 0.30945 -0.49788 -0.062951 0.38268 -0.070274 -0.27904 -0.40654 -0.25789 0.80301 -0.14949 0.24901 0.5464 -0.26399 0.031414 0.23917 -0.46742 0.0018103 -0.26518 -0.085487 0.10562 0.54227 -3.2409 0.32727 -0.62786 -0.28738 0.15358 0.044672 -0.065007 -0.54417 -0.063699 -0.19012 0.10096 0.25574 0.035362 -0.21289 0.32253 -0.568 -0.0041682 -0.44473 -0.14781 0.37504 -0.20635 -0.020636 0.0025946 -0.8409 -0.88463 0.086803 0.12583 0.12415 -0.40151 -0.13882 -0.18997 0.50906 0.40228 -0.041495 0.039546 -0.017204 0.018411 0.27362 -0.051346 -0.50541 0.086083 -0.4242 -0.45382 -0.063668 -0.070294 0.12909 -0.20091 0.093513 -0.093249 0.13397 0.095061 -0.10816 -0.25313 0.57316 -0.69862 0.12898 0.44324 -0.50972 0.0048797 -0.41252 -0.23521 -0.038116 -0.030151 0.76531 -0.46275 0.0495 0.18635 0.14337 -0.43445 -0.1023 0.24637 -0.17663 -0.41765 0.26223 0.24886 -0.027843
game -0.6476 0.58198 1.1052 -0.074528 0.58923 -0.28512 -3.0946 0.15559 0.032628 -0.70099 -0.25841 -0.42398 0.13023 0.3366 0.29695 0.25444 -0.024841 -0.58958 0.18278 -0.48692 0.3407 -0.48321 -0.16907 -0.24906 -0.078097 -0.14473 -0.022434 0.11104 -0.15681 -0.025199 -0.34217 0.15261 -0.26573 -0.26667 0.3538 -0.49148 0.59362 0.048908 -0.60354 0.0097123 -0.15911 0.45297 0.095768 -0.060099 0.31093 0.26272 0.26775 0.18725 -0.71838 -0.13908 0.25544 0.10004 0.21059 -0.17149 -0.22871 -0.063693 -0.30404 0.0079728 0.29753 -0.21708 -0.28733 0.54801 0.93333 0.11647 -0.15284 -0.41463 -0.33552 0.43928 -0.071617 0.012266 0.052031 0.30834 0.10875 0.056554 -0.083417 -0.10401 0.082377 -0.043358 -0.0077992 -0.093843 -0.82179 -0.37069 0.11762 -0.13334 0.61695 -0.45708 0.7788 0.34103 0.66216 -0.74769 0.3752 -0.36759 0.63578 -0.79907 0.43172 0.20786 -2.323 -0.29432 -0.10914 -0.42176 -0.32377 0.17307 -0.22219 0.04051 0.085287 -0.01283 0.44698 0.022365 -0.50225 0.13401 -0.19365 0.26928 -0.26199 0.29596 -0.66419 0.044037 -0.3604 -0.0067731 -0.096495 -0.12652 -0.28509 0.12925 0.044565 0.58414 0.28264 0.15155 -0.17577 0.02924 0.6539 -0.1886 0.16403 0.3585 0.25756 0.078453 0.042515 -0.030901 -0.13092 -0.3235 0.97353 1.4446 0.26643 0.094606 0.50029 0.050335 -0.6415 0.14178 -0.074093 -0.30895 -0.86381 0.12806 -0.65733 0.0042035 0.10694 -0.031294 0.27531 0.29106 -0.43007 0.473 -0.32728 -0.18058 -0.15285 0.25574 0.51081 0.40644 -0.41534 0.16897 0.41915 0.47992 0.63016 0.48487 -0.091447 -0.16757 0.55169 -0.68024 -0.36567 0.029538 -0.28525 -0.90757 -0.42321 -0.20814 0.2382 -0.44491 0.012121 -0.61142 0.23591 -0.082737 -0.042721 -0.043201 0.28901 0.079815 -0.31832 -0.1997 -0.42896 -0.49357 0.078361 0.29222 -0.026091 0.15822 -0.25451 0.27207 -0.3105 0.12301 -0.041443 0.31065 -0.76494 0.027709 0.1456 0.049314 0.25458 0.39664 0.10495 0.21995 -0.59862 -0.18371 0.30352 -0.13683 -0.30136 -0.18876 -0.46163 0.31605 -0.55506 0.25817 -0.64567 0.47274 -3.2012 -0.078576 0.32214 0.43278 0.24998 -0.32867 -0.07824 -0.10298 0.44921 -0.1694 -0.12554 -0.0027241 0.091256 0.45311 0.70069 -0.26479 -0.051778 -0.066752 -0.42385 0.72543 -0.27317 0.06695 0.12185 0.39738 0.089721 0.9608 -0.11312 -0.40148 0.15246 0.56589 -0.12184 -0.40262 -0.13861 -0.17622 0.21516 0.30718 -0.17022 0.38204 0.15914 -0.35919 0.49779 0.16025 -0.43351 0.090026 -0.49391 0.90512 0.22689 -0.11318 0.82208 0.3977 -0.24892 -0.14752 0.26266 0.30412 -0.29157 0.20201 0.22342 -0.29663 -0.41495 0.5684 -0.1105 -1.0166 0.61731 0.095832 -0.26383 -0.1673 0.36828 -0.098055 0.17525 -0.20153 -0.023238 0.39371 0.11841 0.33093 0.18779 -0.26154
service 0.58548 -0.46669 -0.42675 -0.032631 0.10952 0.26278 -3.4803 0.13625 -0.039992 0.33758 -0.50696 0.27562 -0.0088156 0.32428 -0.22646 0.004583 0.20492 -0.30141 -0.28394 0.22538 -0.13934 -0.05583 0.34564 0.034563 -0.13961 -0.60933 -0.45391 -0.86381 0.22844 -0.25849 -0.80155 0.14466 0.83228 -0.58181 0.18694 0.28328 -0.52107 -0.44824 -0.23865 0.037629 0.15608 -0.48526 -0.085999 0.16145 0.43869 0.01977 0.18917 -0.47483 0.096704 0.30207 0.1877 0.10867 0.069636 -0.060141 0.12873 0.45975 -0.50885 -0.26739 -0.88927 0.35166 -0.039291 0.71778 0.17061 0.41718 0.057848 0.13854 0.10853 0.16066 -0.061203 0.47102 0.07461 0.42423 0.39214 -0.14626 -0.33733 0.4747 0.086589 0.019183 -0.15477 -0.042999 -0.029997 -0.61932 -0.63995 -0.5081 0.52814 0.010167 -0.18497 0.46233 0.26726 -0.06073 0.449 0.17028 -0.14744 0.48377 -0.323 -1.0242 -2.7668 -0.17961 -0.089503 0.75488 0.18618 -0.62867 -0.05713 0.10337 0.15008 0.56051 0.15345 0.22794 -0.14932 0.18463 0.22932 -0.23243 -0.27983 0.10392 0.029232 -0.61442 0.02868 0.63916 0.070323 -0.20624 -0.14779 -0.090612 0.00038258 -0.13868 0.20209 0.41673 0.23049 0.011496 0.41958 0.16693 0.037833 -0.062078 0.3113 0.55901 0.0035438 0.65259 -0.079476 -0.7294 -0.36541 0.025727 0.053801 0.064013 -0.06376 0.045553 -0.033566 0.36766 -0.44412 -0.19432 -0.039587 -0.30207 0.37308 -0.29668 -0.18275 -0.16977 -0.31074 -0.89087 -0.40734 -0.17857 -0.043329 -0.10771 0.1505 0.0022187 0.12765 -0.2789 0.021091 -0.35844 -0.56829 -0.20148 -0.32009 0.097917 0.17137 0.16695 -0.24959 -0.21709 -0.40828 0.20422 -0.25103 0.22988 0.31062 -0.070398 -0.068851 -0.22832 0.048354 0.62036 -0.2727 -0.1231 0.12716 0.51887 -0.056439 0.10588 0.15145 -0.30124 0.24567 0.080206 0.076091 0.1707 0.25174 -0.69116 0.49757 -0.47307 -0.42441 0.051493 -0.016982 -0.19143 0.34839 -0.25714 0.51073 0.76941 -0.51395 -0.13792 -0.26974 0.47251 -0.45554 0.097819 -0.042967 0.49707 -0.32713 0.046083 -0.20277 -0.36194 -0.019246 -0.096615 0.2564 -0.093846 -3.1053 -0.068558 -0.2505 0.38718 -0.10318 0.68356 0.11647 -0.56903 -0.088416 0.18035 -0.30953 0.80743 -0.29174 0.15551 0.15881 0.022286 0.14558 -0.28291 0.095248 -0.24067 0.00034632 -0.19807 -0.019509 -0.28102 -0.31754 -0.095345 -0.24271 -0.18568 0.18966 -0.65167 -0.32191 -0.24729 0.43548 -0.02719 -0.11126 -0.57005 0.088944 0.58863 0.247 0.16937 -0.11923 0.60555 0.09454 -0.71327 -0.53447 -0.867 0.088029 0.027147 -0.7541 -0.096501 -0.34034 -0.021607 0.12942 -0.22408 -0.088722 0.23683 -0.73802 -0.19767 -0.95548 0.37247 0.28817 0.37779 0.14981 0.25256 0.47389 -0.17735 0.25043 -0.030582 0.15324 -0.50427 -0.16142 0.084335 -0.20747 0.45391 0.12347 -0.76967
long 0.16097 0.33984 -0.55879 0.11295 -0.17093 -0.21548 -3.2879 0.44638 0.062442 -0.36401 0.041512 -0.12635 0.41713 0.2757 0.029047 -0.10389 -0.20543 -0.099756 0.47424 0.037004 0.13952 0.025862 0.0091855 0.5565 -0.09296 0.15379 -0.11444 -0.11674 0.2508 -0.010727 0.13898 -0.19164 0.38095 -0.25959 -0.084651 -0.18955 0.089912 0.24772 -0.6152 -0.50506 -0.060987 -0.12624 0.37819 0.13787 -0.51086 0.19079 0.029595 -0.24261 -0.11599 0.1113 -0.16857 -0.041506 0.23051 -0.034266 0.30086 0.0986 0.17441 -0.077678 -0.24485 -0.16449 -0.2092 -0.021646 -0.21118 0.088228 0.17604 -0.84853 -0.25391 0.22256 -0.051319 -0.37091 -0.5101 0.47303 -0.21875 -0.17183 0.026616 -0.63497 0.28574 0.20899 0.10399 -0.067983 -0.11077 -0.39632 0.077911 0.11002 -0.41855 0.31323 0.37922 -0.129 -0.43601 0.2075 0.57083 -0.0075746 0.36196 0.14269 -0.024927 -0.22348 -2.3583 -0.004682 0.027419 0.27245 0.24453 0.25081 -0.065437 -0.10484 -0.47616 -0.57513 0.21378 0.10476 0.16451 -0.22905 0.39166 0.016104 0.36895 -0.16315 -0.52932 0.25377 0.15837 0.34825 -0.087322 -0.14046 0.55698 0.065885 -0.29233 -0.20875 0.22773 -0.10659 0.24985 -0.12966 0.19771 -0.31707 -0.079676 0.26168 0.18089 0.10242 -0.2599 0.081983 -0.20144 0.22747 -0.34189 0.71313 0.56246 0.38939 0.27117 0.37846 0.21455 -0.72327 -0.060302 0.1015 0.22207 -0.35973 -0.068537 -0.011601 0.28482 -0.65306 0.3666 0.021765 0.13401 0.13967 -0.052287 0.28625 -0.27222 -0.14138 -0.10377 -0.045308 0.2029 0.34227 -0.23919 -0.2067 0.55965 0.095687 -0.18961 -0.22739 -0.68633 0.19095 -0.28117 0.57308 0.28664 0.26807 -0.0089434 -0.26185 -0.11953 0.0093723 -0.011251 0.14217 -0.3959 -0.00065511 -0.18283 0.51016 -0.57455 0.2935 0.061301 -0.23449 0.12323 -0.064868 -0.62404 -0.0067694 0.26465 -0.16206 0.13043 -0.059745 0.37001 0.058545 -0.16157 -0.16941 -0.57546 0.13669 0.28112 -0.34662 0.14221 -0.51302 -0.07226 0.21123 0.49445 -0.0028303 -0.22955 0.071939 -0.3276 -0.15451 -0.025541 0.029438 -0.17029 -0.40834 -0.082327 -0.064567 -3.0299 0.010941 -0.38272 -0.30821 0.25629 0.018546 0.089704 0.28862 -0.36733 0.031132 -0.6601 -0.18856 -0.57943 0.35831 0.059338 -0.16345 -0.0063616 -0.64657 -0.045499 0.45802 -0.25445 0.050446 0.031747 -0.32047 -0.15656 0.070801 0.3409 0.28189 -0.20437 0.015484 -0.25028 -0.0099038 0.51772 -0.03608 -0.35266 -0.063942 -0.36244 0.1941 0.21007 -0.0060902 0.51832 0.32327 -0.17624 -0.40588 -0.26917 -0.32585 0.11029 -0.065469 -0.93399 -0.63496 0.068096 0.21236 0.13325 0.00041144 0.019398 -0.40706 0.94295 -0.39433 0.035494 -0.40215 -0.10968 -0.27512 0.14607 0.5627 -0.24268 -0.035735 0.75337 -0.18374 0.14958 -0.19392 -0.049379 0.093589 -0.14931 -0.052487 0.18039 0.21106
school 0.72297 -0.11473 -0.14812 -0.14546 -0.20338 -0.35471 -2.6264 -0.40722 -0.26894 0.46712 0.72528 0.16392 0.13083 -0.83487 -0.14762 -0.34899 0.30055 0.29023 0.12164 -0.13025 0.015957 0.26422 0.22673 -0.18321 -0.1304 -0.0065329 0.59317 0.11318 -0.11956 -0.19343 -0.6799 -0.15722 -0.43623 0.48977 -0.54144 0.42756 -0.043863 0.34139 -0.12572 -0.25566 -0.48164 0.25177 0.42348 -0.37733 -0.09762 -0.26171 0.35926 0.1231 0.23869 -0.1221 -0.37556 0.48681 0.46168 0.45737 0.22374 -0.326 0.13647 0.25107 -0.36912 0.46828 -0.40401 -0.025581 0.10459 -0.14906 -0.35001 0.63493 -0.40074 -0.38804 0.43799 -0.080969 -0.31634 0.1051 0.27807 -0.59548 -0.021783 -0.19966 -0.28984 -0.56583 -0.29415 -0.073335 0.19075 -0.70368 -0.24829 0.16529 -0.39737 -0.17336 0.093296 -0.36475 0.6251 0.050371 0.099514 0.032905 -0.097051 0.056168 -0.28623 -0.11409 -2.8806 0.0744 0.11368 0.18093 -0.025867 -0.48384 0.12389 -0.24714 0.36059 0.079327 0.30627 -0.19951 -0.19089 0.40581 -0.19997 0.3899 0.26644 0.97987 0.68647 0.30596 -0.58817 0.42199 0.82844 0.34288 -0.44195 0.57991 0.17719 -0.039198 -0.10447 -0.0073382 0.96587 -0.18234 0.46218 0.40722 0.95893 0.34594 -0.29294 0.20318 0.096783 0.039678 0.47717 0.10158 -0.12295 1.1051 0.52721 -0.56786 -0.78155 0.65914 0.02696 0.061559 -0.015345 -0.32901 -0.30505 0.26081 -0.50557 0.2947 0.82183 -0.1702 -0.63763 -0.88742 -0.19871 -0.37285 -0.27445 -0.30434 -0.22605 0.48678 -0.31035 -0.15162 -0.036818 0.22074 0.026024 0.57997 0.1449 -0.20312 0.47567 0.11217 -0.20664 -0.44552 0.07378 0.07334 -0.07515 -0.10333 -0.22311 -0.48981 -0.46877 0.92065 0.51772 0.30061 -0.27013 0.12223 -0.46787 -0.38858 0.018221 -0.1243 0.055735 -0.11154 -0.16105 -0.23843 -0.33154 -0.55818 -0.74972 0.26328 0.022273 -0.036934 -0.001946 -0.17663 0.42346 0.40942 -0.3496 -0.35565 0.41887 0.1307 0.30864 -0.0073111 0.16063 0.58002 0.022561 -0.14932 6.3293e-05 0.16951 -0.13396 0.30648 -0.21263 -0.022499 -0.52855 0.18506 -0.36385 -0.20766 -3.4155 -0.13443 -0.28106 -0.12016 -0.22238 -0.010775 -0.25615 0.30294 -0.065267 -0.14894 -0.29536 -0.013816 0.1814 -0.075633 0.35944 0.49618 -0.18434 0.065475 -0.37643 0.78405 -0.13792 0.42403 0.37562 -1.0355 -0.37485 0.087239 -0.28222 0.14585 0.37535 0.30478 -0.048483 -0.15594 0.48764 -0.047856 0.45621 -0.11785 -0.16496 0.52754 -0.041314 -0.24411 0.17308 0.0075691 -0.29491 -0.224 -0.19575 0.23074 0.11608 -0.11131 -0.52871 0.58275 -0.1145 0.10229 -0.049937 -0.088516 -0.12599 0.47752 0.121 -0.049249 -0.24281 0.10257 -0.19037 -0.008388 -0.1076 0.36226 0.16586 0.11196 0.60664 0.31153 -0.36033 -0.23229 -0.047996 0.449 -0.0078865 0.22405 0.31343 0.19459
state 0.23165 -0.042901 -0.22237 0.0086333 -0.26491 0.057121 -2.7813 0.41687 0.24869 0.30078 0.12958 -0.068034 -0.23587 0.12809 0.43242 -0.018475 0.47176 -0.14329 -0.31287 -0.31247 0.20111 -0.098784 0.12119 0.22181 -0.26497 -0.023298 0.24689 -0.27555 -0.0009143 -0.61343 -0.73015 -0.16562 0.29539 0.35465 0.34231 0.074382 0.17611 -0.04386 -0.25177 -0.17702 -0.7556 0.54414 0.6449 0.3109 -0.26897 0.1145 0.26373 -0.08918 0.11931 0.084511 0.25965 0.38487 -0.14172 0.54292 0.79531 -0.24485 0.064692 0.072979 -0.47942 0.71823 0.28808 0.79439 -0.04082 -0.22398 0.14007 0.12957 0.10567 0.33043 -0.089517 0.12308 -0.46937 -0.1165 0.42262 -0.023055 0.67748 -0.14735 0.13135 -0.8418 -0.055836 0.32146 -0.38311 -0.70402 -0.32586 -0.40951 0.068994 0.33417 0.12973 -0.15653 0.11066 -0.19219 0.030728 -0.14555 -0.19276 0.22524 0.39896 0.12079 -3.092 -0.66085 0.054361 0.427 -0.096717 0.2548 -0.11202 -0.34557 -0.35762 -0.58515 0.61583 0.086538 0.19089 -0.70327 -0.56222 -0.061353 0.43626 0.19432 0.4315 0.32487 -0.17744 -0.066663 -0.18635 0.12478 -0.55824 -0.30734 -0.12879 -0.56863 0.03156 -0.11334 0.39712 -0.10922 -0.26415 0.21543 1.0775 -0.49713 0.18062 0.55915 0.051618 0.042218 -0.14274 0.33122 -0.27918 0.096653 -0.13872 -0.20963 -0.26374 0.30134 0.10551 -0.47802 0.084877 0.45561 -0.23778 0.55235 -0.50721 0.042589 0.039437 -0.19092 -0.051782 -0.13404 -0.40033 -0.1564 -0.49728 -0.096499 -0.17962 -0.5882 0.16846 -0.17571 -0.68045 0.1427 0.22056 0.093829 -0.2011 -0.12824 0.28315 -0.62496 0.082747 -0.097973 0.66118 0.060235 0.01489 -0.47696 0.69654 -0.24176 -0.50784 0.3322 -0.0011043 -0.29 -0.35704 -0.77083 0.90699 -0.025179 -0.50943 -0.41849 0.18083 0.055685 -0.12774 -0.44665 0.33611 -0.54557 -0.18581 0.46642 -0.24808 0.23362 -0.30706 -0.13416 0.74302 -0.6761 0.24554 0.03767 0.38529 0.24572 -0.4204 0.081966 0.044274 -0.11046 -0.081227 -0.26068 0.06391 0.076501 0.17619 0.098377 -0.15282 -0.50191 -0.55294 0.27321 -0.31518 0.032464 -3.3078 0.38219 -0.33201 0.44346 0.094662 -0.28418 -0.05228 0.25815 1.13 -0.033097 0.25226 -0.7621 -0.13789 0.22407 -0.17677 0.033942 0.23253 0.11808 -0.93664 0.38035 -0.019627 0.073834 0.2234 -0.23041 0.41968 -0.18436 0.31662 -0.56442 0.077316 -0.29905 -0.42058 0.10546 -0.44382 -0.67462 -0.018564 -0.50418 -0.020798 -0.2261 0.46222 -0.12508 0.010666 0.36744 0.16553 0.13818 -0.61286 0.29219 0.071632 0.10104 0.3746 0.048914 -0.20784 -0.078108 0.25154 0.43734 0.055521 0.14838 -0.43489 0.15673 0.0041532 0.099235 -0.17282 0.30561 0.0027004 0.24254 0.53215 0.1916 -0.14018 -0.027251 -0.89491 -0.038777 0.2807 0.5273 -0.21891 -0.54962 -0.26196 -0.10872
post -0.018899 0.066359 -0.16089 -0.030446 0.49942 0.4521 -2.484 0.55548 -0.17311 -0.1492 0.20712 -0.22371 0.22524 0.0055902 0.027838 -0.30794 -0.15579 0.58271 -0.050661 -0.27716 0.28961 0.050514 0.46469 0.037908 -0.47342 0.094068 0.039423 0.56778 0.36807 0.038743 -0.59728 0.068145 0.69351 0.83835 -0.31478 -0.046022 -0.052224 -0.70976 0.38681 0.037456 0.33695 0.25559 0.048964 0.22582 0.014854 -0.16513 -0.62601 0.24188 0.09322 0.11163 -0.12164 -0.22153 -0.60399 0.28459 0.033425 -0.083301 0.43728 -0.24228 0.1625 0.16127 0.43525 0.33887 0.07255 -0.10832 -0.0060507 -0.070611 -0.63102 -0.12874 -0.10987 -0.36751 0.31956 -0.024604 -0.34672 -0.0276 0.38586 -0.17186 0.34475 0.17255 -0.36166 -0.42776 0.043792 -1.145 -0.26526 -0.61718 0.10903 0.0030886 -0.27609 0.013945 -0.11722 0.32889 0.026809 0.064733 0.097926 0.01213 -0.39043 -0.223 -2.1497 -0.11727 0.087455 -0.011744 0.15868 0.018307 -0.084829 -0.54622 -0.038795 0.3021 0.19997 0.054942 0.47625 0.32373 -0.16731 -0.06969 -0.20808 -0.19194 -0.32725 0.23247 0.43264 -0.28837 -0.017412 -0.28386 -0.038985 -0.12476 0.16351 0.40923 0.4759 -0.1497 0.43954 0.014542 -0.42465 0.54428 -0.0021426 0.60739 0.38263 0.044688 -0.16243 -0.0088602 -0.42209 -0.090934 -0.44662 1.2059 0.291 0.044262 0.29592 -0.085454 0.27522 -0.32396 0.20789 0.000758 0.58878 0.043782 0.25048 0.14283 0.2856 0.10026 0.013798 0.2128 -0.16316 0.15769 -0.17463 -0.36351 0.43777 -0.3982 -0.21283 -0.44027 0.43969 0.3091 0.083635 0.62357 -0.2569 0.0038688 -0.0010909 0.044246 0.33762 -0.23204 0.14385 -0.20183 0.10886 0.28511 0.46452 -0.44993 0.29713 0.32389 -0.21359 0.44293 -0.33488 0.46243 0.2909 -0.18419 0.13181 0.25025 0.53796 0.18939 0.73107 -0.50636 -0.46086 0.43659 0.35989 -0.30877 0.5789 0.46331 -0.056582 0.65231 0.11464 -0.22333 -0.32535 0.18312 -0.32311 0.030958 0.41253 0.29669 -0.043328 0.2868 -0.054641 0.10411 -0.85689 -0.0077773 -0.058531 0.21816 -0.57502 0.23977 -0.36954 -0.55845 -0.34883 -0.47103 -3.4005 -0.049932 0.17369 0.036454 0.21633 -0.4034 -0.25214 0.3058 0.40022 0.040449 0.24039 0.51507 -0.25846 0.10881 -0.30995 -0.085946 -0.10394 0.080584 -0.41978 -0.11901 -0.37944 0.081104 0.30014 0.015866 -0.06981 0.25351 -0.217 0.075377 -0.10414 0.017785 0.13227 -0.45057 0.52238 -0.070424 -0.39949 -0.038859 -0.053025 -0.48933 0.079423 -0.082169 0.051315 -0.68786 -0.056939 0.46346 0.035495 0.026509 -0.33702 0.23127 -0.056303 -0.28179 0.15755 -0.10613 0.30122 0.35507 -0.082154 0.015259 0.21069 0.30795 -0.70473 0.34019 0.34843 -0.18099 -0.21291 -0.34459 -0.29394 0.12911 -0.15243 0.54456 0.097004 -0.20638 0.045332 0.14322 -0.089825 0.1302 -0.7551 -0.11317
city 0.65333 0.16002 -0.041916 -0.16341 -0.41159 -0.077641 -2.245 0.044058 -0.070198 0.29116 0.01165 -0.25753 -0.30683 0.51445 0.42306 0.04607 0.010294 -0.26099 0.056981 -0.1328 -0.43569 -0.24438 -0.22177 -0.57132 0.096558 0.033712 0.14417 0.22627 0.52674 -0.83373 -0.28939 0.15118 0.16313 -0.0096519 -0.22117 -0.17347 0.14897 -0.58044 0.014531 -0.10377 0.37391 0.63077 0.58841 -0.1856 -0.06672 0.0071871 -0.34372 -0.30757 0.038685 0.5931 0.52219 0.20137 -0.17255 -0.34359 0.29703 0.23539 -0.10606 0.095595 -0.24181 0.45623 -0.10589 0.049973 -0.10304 -0.73458 -0.10172 -0.2193 -0.36827 -0.12277 0.55693 0.11301 -0.27683 0.10031 0.24068 -0.15802 -0.12282 -0.17496 -0.3781 -0.078388 0.31495 -0.13173 -0.16283 -0.35488 0.55158 -0.32471 0.27499 0.61719 0.58985 0.17057 -0.12774 -0.58685 -0.62852 0.31036 -0.03186 0.58406 0.28799 -0.4999 -2.4099 0.46387 -0.14902 -0.22395 0.14675 -0.012672 -0.12789 -0.39949 0.072449 -0.16625 0.33772 0.02495 -0.44193 0.049895 -0.1966 0.16291 0.48531 0.3059 -0.07466 -0.12563 0.17692 -0.12717 0.71739 0.43524 0.21953 -0.41442 -0.15542 -0.28645 -0.090861 0.1757 -0.060744 -0.03841 -0.18725 -0.51879 0.26631 0.17994 -0.14419 0.097396 0.16913 -0.13961 0.25918 0.19994 0.38614 0.70014 -0.02869 0.20143 0.070209 0.096336 0.24275 0.44446 0.045116 0.26368 -0.53318 0.51082 0.052175 -0.088035 0.56103 -0.043822 -0.4479 -0.60944 0.092639 -0.013042 0.071574 0.23641 0.4725 0.056413 0.043129 -0.19489 0.14847 0.74078 0.25087 -0.12466 0.30596 -0.06325 0.17464 -0.053577 -0.0080567 -0.23839 0.22636 0.25528 -0.18656 -0.28434 0.79974 -0.44072 0.16595 0.33733 0.25293 -0.2235 -0.17747 -0.22995 0.26078 -0.32067 0.16049 -0.29917 -0.22916 0.219 0.37851 -0.63907 0.67805 -0.055943 -0.039483 0.28571 -0.32449 -0.21663 -0.66043 0.37607 0.23369 -0.037357 0.12698 -0.20814 -0.30187 0.98497 0.038447 -0.068868 0.095902 -0.2179 0.33067 0.21994 -0.070075 -0.034242 0.24993 -0.21884 -0.32425 0.023478 0.067347 0.31819 -0.078702 0.21824 -4.0298 0.51627 0.46129 -0.013826 0.073414 -0.1994 0.087201 0.21849 -0.23858 -0.1822 -0.072573 -0.26461 0.45718 0.30371 0.20252 -0.17556 0.37904 0.26001 -0.40894 0.76407 0.37045 0.090395 0.12128 -0.79093 -0.49639 0.29519 -0.28626 -0.071304 0.54433 -0.066491 -0.54921 -0.26891 0.037407 -0.27887 0.23259 -0.042042 0.29615 0.022761 0.20052 0.11742 0.37129 0.83967 -0.037485 0.2163 -0.54461 0.44222 0.32658 0.25586 -1.0546 0.27643 -0.3113 0.1045 0.23144 -0.27055 0.11939 -0.24013 0.083003 -0.084944 0.0073409 0.035663 0.092968 0.33524 -0.125 0.23931 0.26763 0.2104 -0.099459 -0.46281 -0.1287 -0.31709 0.40992 -0.031997 0.76365 -0.36991 -0.22633 -0.39954
system 0.16871 -0.067524 0.33372 -0.20264 0.48741 -0.35407 -3.9338 1.3238 0.0021975 0.076159 -0.26777 -0.17091 -0.17235 0.50982 0.0052032 0.32775 -0.52715 0.10846 -0.30129 -0.28589 -0.028927 0.04499 0.59312 -0.10081 0.04695 0.1311 0.016309 -0.32159 -0.0438 -0.28594 -0.59812 -0.45826 0.022754 0.004171 0.076034 -0.12638 -0.068139 -0.61677 0.29464 0.18929 -0.62563 -0.30622 0.051754 0.17128 0.68478 0.044944 0.11112 -0.055449 0.25115 -0.048802 -0.11124 0.16346 0.17341 0.33973 -0.099636 -0.34414 -0.063221 0.1328 -0.67286 0.18166 0.022465 0.48647 -0.24597 0.16315 -0.12393 0.38178 -0.64572 0.43627 -0.084896 -0.15295 -0.092681 0.19667 0.3235 0.14707 -0.61405 0.28456 -0.071484 -0.28376 0.34625 -0.33153 0.25019 -0.55228 0.43749 0.27853 0.34572 -0.00074551 0.059796 0.03569 0.25865 -0.5278 0.51474 -0.13717 0.41725 -0.20896 0.52947 -0.30227 -2.6917 -0.35526 -0.34517 0.80352 0.1751 0.3189 0.5104 -0.34214 0.03804 -0.34862 0.078068 0.57859 0.40978 0.14243 0.19109 0.19015 -0.40563 -0.22679 -0.29069 -0.92412 0.4033 -0.27563 0.27454 0.23232 -0.34548 0.12236 -0.006368 0.31577 -0.11826 -0.24899 0.70877 -0.32051 -0.082297 -0.37483 0.029412 -0.12882 0.58976 0.37498 -0.35754 -0.017712 -0.37931 -0.14087 0.031197 -0.78612 -0.25486 -0.053159 0.52589 -0.44972 -0.34494 0.40824 0.20035 -0.35961 -0.39753 0.2714 -0.37091 -0.036288 -0.28582 -0.35602 0.31688 -0.50805 0.40791 -0.10875 0.17716 -0.27669 -0.037046 -0.15035 0.067807 0.024891 0.11041 0.20989 -0.41111 -0.1759 0.17114 -0.51327 0.69807 -0.49269 -0.37881 0.20131 0.043987 0.047496 -0.49595 -0.21123 0.57133 -0.0048879 -0.48012 -0.29496 0.59688 0.37928 0.31564 0.067295 0.32638 -0.22544 -0.25905 0.043944 0.31907 -0.044743 0.55541 0.10126 -0.38344 -0.23962 0.78036 0.070105 -0.33906 0.24748 -0.82579 -0.38948 0.008372 -0.28992 0.2912 -0.2234 0.38791 0.37478 0.17802 0.27238 -0.34389 0.1279 -0.5377 -0.43354 0.23163 -0.038737 0.054513 0.1645 -0.19904 -0.57576 -0.21653 -0.076381 -0.18043 -0.06133 -2.4571 0.22707 0.18365 -0.27342 0.30731 0.11318 0.21741 -0.33596 -0.081129 -0.27459 -0.069158 -0.15104 0.066892 -0.10667 -0.50222 -0.13363 -0.28793 -0.20577 -0.13408 -0.68208 -0.19477 0.11733 0.23129 -0.32569 -0.21437 -0.075081 -0.4417 0.0032848 0.097584 0.044449 -0.086672 -0.172 -0.10939 0.32699 0.12813 -0.082432 0.14216 0.55854 0.048441 -0.11588 0.089464 -0.17695 0.039327 -0.19503 -0.46263 -0.035671 0.41089 -0.33982 0.33612 0.44046 0.050336 -0.24543 -0.44719 0.49707 -0.15638 0.51094 -0.18645 0.046672 -0.1911 0.46616 -0.24253 -0.46615 0.41312 0.17739 -0.52126 -0.16337 0.21982 0.24036 -0.32594 -0.43108 -0.82384 -0.18131 -0.14976 0.21707 0.27898 0.48788
news -0.15656 0.11782 0.28564 0.087504 -0.19048 0.065419 -2.2698 -0.066859 0.15078 -0.055143 0.22543 0.45044 -0.4774 0.79755 0.47966 0.10905 0.16209 -0.026664 -0.060051 0.0083705 -0.31267 0.19963 0.25773 -0.28659 -0.16572 0.016361 -0.46725 -0.15273 -0.16455 -0.12009 -0.4735 0.5338 -0.063824 0.53812 0.29566 0.68784 0.30881 -0.22812 0.3509 -0.022465 0.12743 0.21971 -0.14106 0.19171 0.13173 0.27554 -0.24314 -0.14017 -0.28856 -0.70837 -0.52215 -0.040766 0.019485 -0.0058611 0.091167 0.061432 0.34988 -0.044765 -0.15218 -0.107 0.20076 0.22279 0.32812 0.46518 -0.17249 0.17069 -0.080958 -0.10856 0.47047 -0.11885 0.21961 0.066655 -0.12956 0.42463 0.71865 -0.47523 -0.43295 0.081262 -0.30158 -0.27649 0.50989 -1.423 -0.31786 -0.11305 0.53586 0.061183 0.089277 -0.17125 -0.21812 -0.045025 -0.36399 0.23922 -0.27835 -0.23101 -0.19084 -0.4834 -2.7207 0.061418 0.071 -0.15049 -0.16662 0.83108 -0.18845 -0.023776 -0.25198 0.37803 0.52687 0.16907 0.06211 -0.37818 0.05758 -0.78823 -0.43217 0.19876 -0.20532 0.01704 0.4091 0.38374 -0.64317 -0.032024 -0.50574 -0.22907 -0.1584 0.19245 0.47411 0.30938 0.63038 -0.27857 0.26615 -0.25677 -0.48734 0.0056921 0.46803 -0.25681 -0.040913 -0.23865 -0.30125 0.79488 0.33213 1.4848 0.012232 -0.028746 -0.38856 -0.36726 0.51783 0.14696 -0.1537 -0.074058 0.15465 -0.45018 0.16709 -0.091242 -0.12906 -0.076274 -0.090343 0.24409 0.20883 0.44927 -0.0043643 0.016839 0.13254 -0.58981 -0.069835 0.058333 0.46362 0.10941 0.35711 0.409 0.046615 -0.24791 -0.32387 0.58643 0.60335 -0.55611 -0.38562 0.015676 -0.19363 0.83309 -0.5345 -0.37414 -0.099502 -0.12784 0.21746 0.16909 0.092614 -0.046701 0.10456 -0.36431 0.48994 -0.41573 0.22065 0.26713 0.7078 -0.088628 -0.01023 -0.52332 -0.241 -0.61117 0.29827 0.29208 -0.47707 -0.074402 -0.47676 0.22356 0.50783 -0.40304 0.26519 0.69762 0.011012 -0.30066 -0.29774 0.75802 -0.03434 0.14583 -0.22678 0.21504 0.056384 0.21763 0.077371 0.23043 0.1686 0.059324 0.29683 -0.34524 -3.5757 0.54481 0.31949 0.60283 -0.23727 0.095898 0.029502 0.57329 0.44379 0.2444 0.18301 0.30416 0.11101 -0.13718 0.25934 0.029363 -0.074115 0.038764 0.15021 0.79004 -0.41304 0.13409 -0.10643 -0.50025 0.15504 -0.066224 -0.20988 0.01602 -0.33744 0.46064 -0.40048 -0.19351 -0.273 -0.2032 0.36717 0.17589 0.081474 0.073438 -0.10871 -0.13718 0.014732 0.084025 -0.1221 -0.037806 0.19284 0.097414 -0.3629 0.22982 0.5748 -0.18436 0.17702 -0.62193 0.039796 -0.15878 -0.37921 0.043128 -1.0562 -0.14148 -0.48971 -1.009 0.040006 0.028793 -1.1034 -0.008614 0.23885 -0.21516 -0.047749 0.26326 0.32378 0.11513 0.11515 0.25861 0.0023958 0.059162 -0.079864 -0.059518
site 0.57884 -0.16349 0.24116 -0.2648 0.6825 -0.1254 -3.2966 0.3137 0.090527 -0.023087 -0.14465 0.096881 0.26195 0.22666 -0.099081 -0.15096 -0.4518 -0.095438 -0.13078 -0.023767 -0.4274 -0.086622 0.10362 -0.38182 0.090703 0.16794 -0.098604 0.11776 0.10334 -0.12541 -0.335 -0.10016 -0.11671 -0.39181 -0.32053 -0.15834 0.4203 -0.14675 0.1102 0.34315 -0.10628 -0.31464 0.10218 0.28548 0.28568 -0.27563 -0.092046 -0.18075 0.049609 0.081944 -0.57245 0.12272 -0.029281 0.11997 -0.019456 0.026279 -0.048937 0.019768 -0.42081 0.068255 0.62404 0.12068 -0.067358 0.28124 0.38098 0.29979 -0.066153 0.40251 -0.03786 -0.36295 0.73875 0.0017767 -0.053028 0.39468 0.5998 -0.11375 0.10608 0.10616 -0.16144 -0.31871 -0.50057 -1.0198 -0.40352 -0.24536 0.29642 -0.33278 0.33525 0.16398 -0.18318 -0.057682 -0.37863 0.44575 0.22222 -0.25273 0.33658 -1.0575 -2.4845 0.38976 -0.64652 -0.18943 0.15868 -0.017882 -0.3636 -0.30539 0.14453 0.34912 0.037835 -0.54518 -0.46889 0.097395 0.2106 -0.49412 -0.50914 0.30251 -0.66768 -0.049996 0.32838 -9.9647e-05 -0.075673 -0.35156 -0.17512 -0.22158 0.10655 0.13043 0.063437 0.053659 0.39036 -0.001467 0.62946 -0.066224 -0.078348 0.6404 0.38207 0.076208 0.59553 -0.013123 -0.099446 -0.72607 -0.28018 0.7811 0.98379 0.51683 -0.54918 -0.036273 -0.10718 -0.47885 0.32427 -0.090075 0.52632 -0.1412 0.68056 -0.14787 -0.065336 -0.22825 0.15919 -0.56551 -0.65859 -0.45374 0.17348 -0.68693 0.38511 -0.32119 0.26139 0.32021 -0.17815 -0.15252 0.063616 0.3488 0.099592 -0.064049 0.74129 -0.093814 0.30086 -0.17941 -0.2241 -0.6529 -0.014705 -0.53953 0.10958 -0.41377 0.048083 0.42853 -0.60874 -0.20362 -0.1343 -0.060134 0.41192 0.16925 0.28189 -0.24705 0.17606 -0.081578 0.42286 0.0087874 0.19199 -0.33514 0.40586 -0.84459 0.17249 0.068896 -0.020193 0.18562 0.029965 0.1287 0.10899 -0.065996 0.047903 0.013488 0.065233 0.073528 0.12586 -0.23523 0.11725 0.36596 0.1722 0.47249 -0.26145 -0.35957 -0.80349 0.26187 0.06799 -0.012743 -0.35813 -0.12349 -2.8641 -0.42022 0.11565 -0.58485 0.31636 0.34529 0.91767 0.29085 0.22605 0.22943 0.11164 0.29028 -0.17842 0.095599 -0.036774 0.23297 0.32014 0.19552 -0.065414 -0.23785 -0.055417 -0.36969 0.14461 -0.025776 0.085977 -0.44543 0.40365 0.1855 0.51173 0.0059897 0.79417 -0.57748 0.18193 -0.53009 0.060366 -0.13472 -0.17159 0.24282 0.23675 0.30866 0.31373 0.050526 -0.52737 0.027988 -0.040444 0.095969 0.45166 0.60665 0.088697 0.061094 0.24368 0.009928 0.10202 0.18095 0.21191 0.32367 -0.61233 0.0095686 -0.46416 -0.7223 0.059227 0.46429 -0.056013 -0.45023 0.17624 0.10709 -0.066009 -0.39465 -0.14809 0.11912 -0.12978 0.34444 -0.10114 0.3914 -0.059535 -0.041874


